//Numpy array shape [7, 8, 16]
//Min -0.133497923613
//Max 0.133434757590
//Number of zeros 0

#ifndef W10_H_
#define W10_H_

#ifndef __SYNTHESIS__
conv_2_weight_t w10[896];
#else
conv_2_weight_t w10[896] = {0.1252053529024, 0.1333607882261, 0.0426609292626, 0.1124142557383, 0.0657237991691, -0.0597749054432, -0.0450738370419, 0.0727085247636, 0.0844804197550, 0.1349143832922, 0.0601039752364, -0.1136161684990, 0.0567810647190, 0.0407198779285, -0.0043772105128, 0.0488768965006, 0.1251572668552, 0.0709479153156, 0.1094038188457, -0.1344623267651, -0.1342748403549, -0.0873241052032, -0.1303579360247, 0.0512934997678, 0.0125598283485, 0.0340028554201, 0.1268834620714, 0.0113146957010, 0.0750435590744, 0.1044967845082, 0.0729053020477, 0.0524035058916, -0.1146188676357, 0.0803889185190, 0.0656627193093, -0.0728111192584, 0.0686687827110, 0.0538879744709, 0.1303942501545, 0.0213835258037, 0.0669722259045, -0.0823377370834, 0.0755563825369, 0.1071803718805, -0.1075318679214, 0.1176149249077, 0.0997500047088, 0.0602566376328, -0.1365438848734, -0.0605629719794, -0.0965710431337, 0.0609011836350, 0.0788932293653, -0.0831911414862, 0.0444812104106, 0.0654920488596, 0.0590116381645, -0.1257935017347, 0.0050517315976, 0.0430455952883, -0.0636905357242, -0.1307909190655, 0.0501509420574, 0.0321533828974, -0.0917309075594, 0.0585577897727, -0.1212210878730, 0.0560322701931, 0.1381745189428, 0.0291476715356, -0.0396856516600, 0.1138956770301, 0.0878199785948, -0.0879868194461, 0.1354780644178, -0.0511629395187, -0.0263679530472, 0.0557614155114, -0.0753966420889, 0.0429859310389, -0.0310686659068, -0.0376746505499, 0.1104333549738, 0.1122524514794, -0.0299906246364, 0.0945411697030, -0.0368382744491, -0.1046258658171, 0.1037527993321, 0.0010401044274, 0.0878634378314, -0.1171495467424, -0.0070908749476, 0.0687186345458, 0.0645730197430, 0.0688653811812, 0.1349562555552, -0.1284539550543, 0.0318226106465, -0.1301256418228, 0.0936903059483, 0.1278192549944, 0.0401174351573, 0.0229333378375, -0.0179492179304, 0.0043939207681, -0.1055234521627, 0.0677544996142, -0.1031131446362, -0.1217667609453, 0.0802558809519, 0.0640811026096, 0.0176774747670, 0.0247291382402, 0.0964843705297, -0.0106105385348, -0.0526597835124, 0.0996309667826, -0.1315954476595, -0.0226022601128, -0.0821866393089, -0.1387462019920, -0.1243699938059, -0.0514531061053, 0.0018582533812, -0.1363806724548, -0.0786904394627, -0.0830192267895, -0.0708943754435, 0.1377284228802, -0.0765857622027, -0.1358947157860, 0.0688964799047, -0.0778350457549, 0.0114274052903, 0.0355622321367, -0.0270384140313, -0.0435270294547, 0.1363830566406, -0.0253951679915, 0.0493311882019, 0.0101684443653, -0.1126960217953, 0.0255748182535, -0.0950967967510, 0.1336082518101, 0.0108096757904, -0.0515789203346, 0.0956953018904, -0.0765431374311, 0.0612585209310, -0.0235263574868, 0.0933141559362, 0.0981722548604, 0.0884541347623, 0.1165805011988, -0.0557797998190, 0.0105244945735, 0.0574881806970, 0.0325720012188, -0.0537032000721, 0.0874342024326, 0.1268624216318, -0.0396022759378, 0.1246315464377, 0.1022413894534, -0.0710026398301, 0.0251990463585, -0.0535782389343, 0.0216612406075, 0.1099891588092, -0.0653680488467, 0.0032448512502, 0.0911304056644, 0.1136620268226, 0.0409985296428, -0.1198942288756, 0.0130568761379, -0.0124586485326, -0.1382789015770, 0.0355223678052, -0.0153905823827, 0.1059530451894, 0.0933301746845, 0.0184653233737, -0.0523284859955, 0.1150296330452, 0.0925646498799, 0.1220726072788, -0.1324822157621, 0.0669733434916, -0.1337122768164, -0.1163281276822, -0.0356242656708, -0.0808084458113, -0.0676042512059, -0.0277619510889, -0.1327398270369, 0.0629418343306, -0.0933454334736, -0.0899072811007, 0.0326291136444, 0.1147101819515, 0.1255702227354, 0.0916744694114, -0.0419352129102, 0.1060663461685, -0.0160225592554, -0.0807241946459, -0.0891564488411, -0.1211863681674, -0.0329707823694, -0.0819746628404, -0.1208250150084, 0.0028884450439, 0.1346357464790, -0.0412093997002, -0.0352507606149, -0.0134818293154, 0.0656862556934, 0.0961124449968, -0.0408314503729, 0.0874734669924, -0.0816220119596, 0.0269483681768, 0.0990907102823, 0.0598793849349, 0.0247249417007, -0.1370189785957, -0.0490619577467, 0.1395138502121, -0.1320862919092, 0.0619362071157, 0.0205275565386, 0.1391994655132, -0.0723543241620, 0.0984837114811, -0.0959074944258, -0.1028408855200, 0.0206585209817, 0.1355365216732, -0.0963479056954, -0.0487875826657, -0.0675438344479, 0.1284221410751, 0.1330071538687, -0.0911756455898, 0.0193332061172, -0.0772326141596, 0.1386256366968, 0.0997469648719, 0.0714149847627, 0.0203694272786, 0.0163271911442, 0.0663430243731, 0.1356996595860, 0.0819548666477, 0.0979764834046, 0.1094484254718, -0.0729284584522, -0.0252093411982, 0.0978602692485, 0.0090990411118, -0.0283324960619, -0.0189309027046, -0.0039226976223, -0.0992532521486, -0.0175554379821, 0.0724073871970, 0.0153355579823, 0.0286257881671, -0.1135438233614, 0.1159750893712, 0.0196921713650, -0.0867329165339, -0.0748945549130, 0.1231388598680, 0.0094221299514, -0.0381871275604, 0.0016201391118, 0.0803192332387, -0.1174176335335, -0.0140418903902, -0.0017141563585, 0.0953742116690, -0.0340070240200, -0.0712540745735, -0.0429744534194, -0.1146584078670, 0.0620682165027, -0.0743656381965, 0.0903402194381, -0.0798845216632, -0.1121060475707, -0.0047483849339, 0.1218391284347, -0.0155438724905, -0.0645340308547, 0.1318551301956, 0.0021339592058, 0.1248795986176, 0.0348884724081, -0.1250124275684, 0.0995208099484, 0.0399409085512, 0.1108987554908, -0.0942443534732, 0.1083567366004, -0.1244851276278, 0.0909890905023, 0.1383819282055, -0.1311806440353, 0.0082732578740, 0.0396207645535, 0.1133953556418, -0.0796991437674, -0.0912172198296, 0.0773726329207, 0.0250890813768, -0.0000168234183, 0.0629343390465, -0.0202739015222, 0.0948866605759, -0.0714291036129, -0.0266623366624, -0.0362376570702, -0.1064327731729, -0.0940758436918, -0.1329012960196, 0.0421746931970, 0.0711021795869, 0.0072888205759, 0.1376139074564, 0.1270631104708, -0.0151104442775, 0.0074227084406, 0.0364702567458, 0.0201735012233, -0.1176407709718, 0.0676246881485, 0.0358452163637, -0.0410554222763, -0.0832069292665, 0.1274901479483, 0.0390282794833, 0.0109871188179, 0.0677112415433, 0.0249358788133, -0.0427041202784, -0.0724173337221, -0.0638086274266, -0.0453086905181, 0.0819117575884, 0.0960967987776, -0.0630381479859, -0.0379386879504, -0.1219316944480, -0.0751605406404, -0.1328977495432, -0.0072732414119, -0.1001322269440, 0.0959433838725, -0.0659595206380, -0.0152349444106, 0.0327341333032, -0.0076213749126, 0.0143493432552, 0.0276941955090, 0.0642275735736, 0.0229175742716, 0.0185048114508, 0.0320682153106, -0.1000699549913, -0.0172320194542, 0.0846448466182, -0.1374600976706, -0.0487303808331, -0.0692941918969, 0.1201591715217, -0.0078425956890, 0.1310540884733, -0.0108448136598, -0.1328381747007, -0.0460161939263, 0.1033493578434, -0.0602604039013, 0.0455551929772, -0.0423314683139, -0.0570112168789, 0.0216342434287, -0.0007703125593, -0.0900592580438, -0.0584258139133, 0.0781035572290, -0.0930252745748, -0.0848132744431, -0.0184831805527, 0.0720722228289, 0.1112210229039, 0.1309153735638, 0.0633261948824, -0.1113219335675, 0.0211815442890, 0.0269283205271, -0.1201884970069, -0.0409945771098, 0.0607410669327, 0.1070402935147, -0.0715074762702, 0.1306236684322, 0.0889289751649, -0.1257743984461, 0.1272404491901, 0.0725588351488, -0.1379826217890, 0.0294001884758, 0.0047471951693, -0.0518011301756, 0.0935160145164, 0.0129074798897, 0.1313386112452, -0.0551626719534, 0.1259274333715, -0.0502492710948, -0.0457597225904, -0.0648244172335, 0.0254208948463, 0.0595660507679, 0.1006445735693, 0.1017872840166, -0.0394428521395, -0.1283641308546, -0.0824921950698, 0.0792388021946, 0.0299272499979, -0.1161404252052, -0.0988568589091, 0.0177828166634, -0.1392994672060, 0.1302179098129, 0.1231456622481, -0.1102696955204, -0.0395702421665, -0.0000610703210, 0.0119058536366, -0.0619508214295, -0.0048293094151, 0.0604394041002, 0.1356053948402, -0.0105745745823, 0.0812143534422, 0.0882800966501, 0.0785966217518, 0.0769098177552, 0.0786168426275, 0.0941610857844, -0.1152537986636, -0.1027660146356, 0.1357929557562, 0.1047861725092, 0.1282494813204, -0.0876004248857, 0.0118056284264, 0.0980751961470, -0.0530424714088, 0.0533620901406, 0.1048333123326, -0.0764636546373, -0.0983254015446, 0.0023599227425, -0.0922908484936, -0.1063115596771, 0.1235848739743, -0.0895558819175, -0.0004401143815, 0.1386617124081, -0.0013865394285, 0.0620291531086, -0.0357302725315, -0.0331958904862, 0.0755390599370, 0.0679735392332, 0.0446689389646, 0.0297331716865, 0.0115825636312, -0.1256205588579, 0.0371257774532, -0.0367574729025, -0.0726496279240, 0.0140331089497, -0.0418175831437, -0.1303021162748, -0.0769663825631, 0.0991921499372, -0.0989827960730, 0.1006627008319, -0.0009581880877, -0.0312417559326, 0.0990797579288, 0.1072799637914, -0.0647143423557, -0.1274761706591, -0.1072586998343, -0.0214296132326, -0.0079340497032, -0.1367881000042, 0.0477930940688, -0.0364505425096, 0.0043978891335, 0.0272102374583, 0.0962283685803, -0.0315813422203, -0.1221088990569, 0.0597478747368, -0.1027932092547, -0.0446962751448, -0.0193006042391, 0.0265317186713, -0.0978772863746, -0.0257094837725, 0.0572756156325, 0.0222854334861, 0.0788499042392, 0.0565715432167, -0.1345591843128, -0.0766738727689, -0.1266058087349, -0.1344902515411, -0.1139325723052, -0.0031181215309, 0.0435925759375, 0.0016653009225, 0.1240576356649, 0.0104097109288, -0.1187613382936, 0.0444232150912, -0.1087069809437, 0.0547270216048, -0.0445533208549, -0.1369141787291, 0.0644236728549, 0.0263619851321, -0.0095758177340, 0.0480339936912, 0.0186878982931, -0.1028738394380, 0.0559553354979, -0.0870456844568, 0.0291617531329, 0.0925766304135, -0.0074357721023, -0.0537069328129, 0.0877482518554, 0.0021081401501, 0.0748104378581, 0.1361915320158, -0.1381445080042, 0.1026253402233, 0.0712083056569, -0.1050107032061, 0.1142762899399, 0.0483427420259, 0.0075424388051, 0.0102988239378, 0.0004611727200, -0.0509700849652, -0.0183954015374, -0.0416642799973, -0.0620755106211, -0.1011278629303, 0.0289835240692, -0.0727335885167, -0.0350050665438, 0.0037345457822, -0.0837031453848, 0.0336244851351, 0.0466906800866, -0.1089956387877, 0.0440748967230, 0.0934782326221, 0.0600373558700, -0.0800316929817, -0.0431744419038, 0.0054800598882, -0.1189466416836, -0.0110158696771, -0.1055535972118, 0.0851621180773, 0.0699065029621, 0.0345722436905, 0.0527471043169, -0.0524581894279, 0.0931112319231, -0.0398743189871, 0.0786540806293, 0.0175325796008, 0.1156023368239, -0.0297706276178, 0.0570584610105, -0.0354560352862, -0.0568681173027, -0.0505453571677, -0.1300466209650, 0.0085399355739, -0.0147390952334, 0.1190540269017, 0.0456964410841, -0.0738812386990, 0.0684881955385, -0.0488228686154, -0.1344403177500, 0.0466646663845, -0.0854007080197, -0.0364869236946, 0.0870026126504, -0.0115826306865, -0.0098488535732, 0.1092263832688, 0.0073554920964, 0.0065563605167, -0.0072638955899, -0.0191648080945, 0.0887568518519, -0.0872263312340, -0.0875409170985, -0.0827964767814, 0.0893485024571, 0.1299868673086, -0.0570842325687, -0.0017716143047, -0.0316665284336, -0.1206520274282, 0.0673762708902, 0.0258025079966, -0.1285240650177, 0.1192681714892, -0.0476798340678, 0.0288289505988, -0.0222211945802, 0.0659036561847, 0.0158646423370, -0.0379499681294, 0.0621597841382, 0.1283502280712, 0.0342473648489, 0.0366268791258, 0.0674972981215, 0.1235831752419, 0.0366466641426, -0.0527610592544, -0.0066727790982, -0.1048829481006, -0.1272416859865, 0.1309756189585, -0.0464472547174, 0.0592023991048, -0.0024149764795, -0.1041109487414, -0.0345560535789, 0.0288531556726, 0.0773058980703, 0.0373090244830, -0.0132213821635, 0.0792409256101, -0.0269017517567, 0.0001300969743, 0.0026125321165, -0.1290040761232, 0.0282162316144, 0.1180045157671, -0.1252461671829, -0.0161247197539, -0.0716456621885, 0.1079606413841, -0.0027425943408, -0.0429082848132, 0.0285015273839, 0.1001522243023, 0.0049161571078, -0.0322759896517, 0.0171060692519, -0.1271265894175, 0.0872731059790, 0.1203625947237, 0.1137055903673, -0.1387294679880, 0.0141627779230, 0.1329356282949, -0.0158752556890, 0.0939701870084, -0.0644420236349, 0.0740201622248, 0.0382447242737, -0.1323580294847, 0.0911927521229, -0.1393242925406, 0.1345056593418, 0.0803006142378, -0.0191384647042, -0.1160293668509, 0.1378024965525, -0.0848771855235, -0.0356260016561, 0.0576085411012, 0.0720815956593, 0.0542253553867, -0.0349395796657, 0.0485706627369, 0.0982123091817, -0.0027750495356, 0.1298051923513, -0.1043540835381, 0.0781316012144, 0.1205694749951, -0.0493097193539, 0.1285100877285, -0.0220617111772, -0.0475447922945, 0.0205431506038, -0.0639896765351, -0.0955939814448, 0.1045423150063, -0.0221111439168, 0.1287707090378, 0.0904730185866, 0.0681579187512, 0.1018008217216, 0.0310160703957, -0.0322490856051, -0.0356528796256, 0.0973105058074, -0.0998989120126, -0.1098612919450, 0.0410861819983, -0.0866191238165, -0.1024226918817, -0.1111721619964, -0.0364744514227, -0.0853921324015, 0.1262249499559, 0.0715581700206, -0.0418554879725, 0.1368481218815, -0.1026028096676, -0.0515882298350, -0.0888219252229, -0.0792230665684, -0.0573839806020, -0.0619595758617, 0.0268190316856, -0.0953008383512, 0.0705513432622, 0.0949103385210, 0.0284016989172, 0.1325578391552, -0.0926850512624, -0.0749906897545, 0.0096512353048, -0.0574153922498, -0.0768983736634, 0.1288426071405, 0.0553032495081, 0.0046473713592, -0.0429598353803, 0.0784111395478, 0.0467041730881, -0.0275704376400, -0.0787446498871, -0.1133611351252, -0.0240724813193, -0.0689009800553, 0.1314059942961, 0.0014276007423, -0.0872786641121, -0.0532164908946, -0.0842191353440, -0.0109602939337, -0.0760533437133, -0.0394754037261, 0.0212044566870, -0.1290758997202, -0.1232137680054, 0.0536036901176, 0.1218921914697, 0.0672957599163, -0.0582699552178, 0.0366527810693, 0.0482108071446, -0.0645812153816, -0.0797384530306, 0.0725198090076, -0.0862538143992, 0.0564572438598, 0.0559102334082, 0.1164942681789, 0.0515845492482, -0.0488393455744, -0.0627720430493, 0.0498767457902, -0.0375894792378, 0.0031636180356, -0.0213581584394, -0.0935002416372, 0.0819005742669, 0.1308367252350, -0.0953537896276, 0.0486136302352, -0.0461803525686, 0.1255630999804, 0.0489823557436, 0.0209951717407, -0.1075437068939, -0.0314047299325, -0.1099844202399, 0.0415995121002, -0.1157737150788, -0.1263940930367, 0.0429857224226, -0.0074755568057, 0.0107871349901, -0.0364025048912, 0.1315350979567, -0.1042430251837, -0.0767062455416, 0.0301537401974, -0.1031016558409, -0.0861542969942, -0.1300006657839, 0.0615962408483, 0.0520507730544, -0.0808459371328, 0.0243429839611, 0.0042479224503, -0.0558567531407, -0.0812711045146, -0.0246861614287, 0.1020675376058, 0.0201395172626, 0.0240959078074, 0.0284163672477, 0.0182582549751, -0.1148782297969, 0.0894763320684, -0.0846401527524, 0.0796040967107, -0.0543804988265, -0.0731999427080, 0.0837737321854, -0.1004576086998, 0.0565151050687, 0.0982172712684, 0.0984228700399, -0.1291010677814, 0.1067255288363, 0.0649027079344, 0.0299975499511, 0.0842941775918, 0.1040403172374, -0.0816252306104, 0.0169563759118, 0.0326016210020, 0.0256421845406, 0.0691015124321, 0.0070841629058, 0.0216659419239, 0.0482042208314, -0.1032980605960, 0.0028515544254, -0.1264831423759, -0.0363271459937, 0.0961771681905, 0.0236565303057, 0.0700801983476, -0.1140638142824, -0.1121023148298, -0.0480667278171, 0.1307156980038, 0.0607572160661, 0.0808040276170, -0.0843732655048, -0.1354993283749, 0.0316502116621, -0.0196757875383, 0.1074690222740, 0.0288008376956, 0.0994429364800, 0.0887617766857, 0.0065838987939, 0.1224472224712, 0.0683298036456, 0.1234535500407, 0.0827716663480, 0.1315565407276, 0.0058508911170, 0.1178733184934, -0.0780646726489};
#endif

#endif
