//Numpy array shape [7, 32, 64]
//Min -0.066806383431
//Max 0.066813237965
//Number of zeros 0

#ifndef W18_H_
#define W18_H_

#ifndef __SYNTHESIS__
conv_4_weight_t w18[14336];
#else
conv_4_weight_t w18[14336] = {0.0286266915500, -0.0105064725503, 0.0399372167885, -0.0489358827472, -0.0653271153569, 0.0431388653815, -0.0325964801013, 0.0681294947863, -0.0374655835330, 0.0267407242209, 0.0677542909980, 0.0372203327715, -0.0005553931114, -0.0329117476940, 0.0035338897724, -0.0053431307897, 0.0434784777462, -0.0515928305686, 0.0621375516057, -0.0511785559356, 0.0060369465500, -0.0538057498634, 0.0257371068001, 0.0367457196116, 0.0679026842117, -0.0547756962478, 0.0173992682248, -0.0486779622734, -0.0210293158889, -0.0437935814261, -0.0108862491325, -0.0477430932224, 0.0405366159976, -0.0006062034518, 0.0587742477655, 0.0415883958340, -0.0445508137345, -0.0280650407076, 0.0324585326016, 0.0183515436947, -0.0389321073890, -0.0670034661889, 0.0084161730483, 0.0431559607387, 0.0001850781991, 0.0368899330497, 0.0184611883014, -0.0162133518606, -0.0382806062698, 0.0489923693240, 0.0431289672852, 0.0126332333311, -0.0645266994834, -0.0143643636256, 0.0365446954966, 0.0612266920507, -0.0620503127575, -0.0163561385125, 0.0373233631253, 0.0296467598528, 0.0097738271579, 0.0486555136740, -0.0240083374083, 0.0247380789369, -0.0001542832761, -0.0070283743553, -0.0517079196870, 0.0265404786915, -0.0141921769828, -0.0164146497846, -0.0088472189382, -0.0180206745863, 0.0163028165698, 0.0014589831699, -0.0416002012789, -0.0611786283553, 0.0285681542009, -0.0373468399048, -0.0059089194983, -0.0618958547711, -0.0186391100287, 0.0174861811101, -0.0328581407666, 0.0467860363424, 0.0307539422065, -0.0385955721140, 0.0270787682384, -0.0382789820433, 0.0029548853636, 0.0111555857584, 0.0431005172431, -0.0526020638645, -0.0284122116864, 0.0395054295659, -0.0208512041718, 0.0432965420187, 0.0567748732865, -0.0280767697841, -0.0233696196228, 0.0100144129246, 0.0623403675854, -0.0562245994806, -0.0505535379052, -0.0314754061401, -0.0181911252439, 0.0366519242525, 0.0510348528624, -0.0550034567714, 0.0016375036212, -0.0510814152658, 0.0035745715722, 0.0518095605075, 0.0457743741572, 0.0163023322821, -0.0663546249270, 0.0070014507510, 0.0037985374220, 0.0559984892607, -0.0415702387691, 0.0425838567317, 0.0249846633524, -0.0069416295737, -0.0261011496186, -0.0002851887839, -0.0089482460171, -0.0661004483700, 0.0639038830996, 0.0187332462519, -0.0045849801973, 0.0306720118970, -0.0196603219956, -0.0540111213923, -0.0556594543159, 0.0374008156359, -0.0287144780159, -0.0262253880501, 0.0237259846181, -0.0491290315986, -0.0697951391339, 0.0031430586241, 0.0449557602406, 0.0579971633852, 0.0118026873097, 0.0418161600828, 0.0418824926019, -0.0263725966215, -0.0053202952258, 0.0167741347104, -0.0483853295445, 0.0178515147418, -0.0227402392775, 0.0154911186546, 0.0206105522811, -0.0431444533169, -0.0181741807610, -0.0349911190569, -0.0424422584474, 0.0341720953584, -0.0273536369205, -0.0636487156153, 0.0279628932476, 0.0447060242295, 0.0073366989382, 0.0521795786917, 0.0056553767063, -0.0028901167680, 0.0475635007024, -0.0298334993422, 0.0265242252499, -0.0285860672593, 0.0379217304289, 0.0594577565789, -0.0134209273383, 0.0042125713080, -0.0129186809063, -0.0421244576573, -0.0188223682344, 0.0472274199128, -0.0291395336390, 0.0037625029217, 0.0288073718548, 0.0683486014605, -0.0278152097017, 0.0383801385760, -0.0480095744133, -0.0682582110167, -0.0324389450252, -0.0136754130945, 0.0294812303036, -0.0647447630763, 0.0380245596170, 0.0094540892169, 0.0698662400246, -0.0571067668498, -0.0171534270048, -0.0398390181363, 0.0620042569935, -0.0169383138418, -0.0066405800171, 0.0270506441593, 0.0079649537802, 0.0461598783731, 0.0426087677479, -0.0579678453505, 0.0685127824545, 0.0222064461559, -0.0065553872846, 0.0459896661341, 0.0575805604458, 0.0584478080273, 0.0485172681510, -0.0296708457172, -0.0019012918929, 0.0096372822300, -0.0195857081562, 0.0157334487885, 0.0387514568865, -0.0064792968333, -0.0278579760343, 0.0188318807632, 0.0681874081492, 0.0235552899539, -0.0218437593430, -0.0409362986684, -0.0597654581070, 0.0512238740921, 0.0358858108521, -0.0026786918752, 0.0197861604393, -0.0647130459547, 0.0282840076834, 0.0267476830631, 0.0364656560123, -0.0433086641133, 0.0516575612128, -0.0263728145510, 0.0667415410280, -0.0451676882803, -0.0331327915192, -0.0600489825010, 0.0614121258259, -0.0122659634799, -0.0196103136986, -0.0361666753888, -0.0392152406275, -0.0525049455464, -0.0636796131730, -0.0268815159798, -0.0393782705069, -0.0022825505584, 0.0171610023826, -0.0622741542757, -0.0111083919182, -0.0276214238256, 0.0409197621047, -0.0446680262685, 0.0613725632429, -0.0660265535116, 0.0652855187654, -0.0280259177089, -0.0366367325187, 0.0069583123550, 0.0380132235587, -0.0119050834328, 0.0489586368203, -0.0040954453871, -0.0261950418353, 0.0355858132243, 0.0697065666318, -0.0211637523025, -0.0056511680596, 0.0461552478373, 0.0600499324501, -0.0568507276475, 0.0381736643612, -0.0358591787517, 0.0523534454405, 0.0463219359517, 0.0166279096156, 0.0487473458052, 0.0583015084267, 0.0296365730464, 0.0032219211571, 0.0662902519107, -0.0370323173702, -0.0390223562717, 0.0634321495891, 0.0661680176854, -0.0292885638773, -0.0363688245416, 0.0186534970999, -0.0661686211824, 0.0100974906236, -0.0276536494493, 0.0546830780804, 0.0644471347332, -0.0359883867204, -0.0407617539167, 0.0124702276662, -0.0328331142664, -0.0275702066720, -0.0090885898098, -0.0465446040034, -0.0103798210621, 0.0004294683167, 0.0435759872198, 0.0277488566935, 0.0290042497218, 0.0633082017303, 0.0515916571021, 0.0359244570136, -0.0297927148640, -0.0471120402217, 0.0228656362742, -0.0283890478313, 0.0651817396283, 0.0611457936466, -0.0067387181334, -0.0342668034136, 0.0344921313226, 0.0532785952091, 0.0055465018377, -0.0628760010004, -0.0399624519050, -0.0418400764465, 0.0043864040636, -0.0082309786230, 0.0017410054570, 0.0210136454552, 0.0563969276845, 0.0606067590415, 0.0540064275265, -0.0205493513495, -0.0380740612745, 0.0037072154228, 0.0082268686965, -0.0619225054979, 0.0506180338562, 0.0103840725496, -0.0584794394672, 0.0565487146378, -0.0571011155844, 0.0164575316012, -0.0251573827118, -0.0482779778540, -0.0593389570713, 0.0320975072682, 0.0631756410003, 0.0452307686210, 0.0400623865426, -0.0104812365025, -0.0689047873020, -0.0656407177448, -0.0117793278769, -0.0493994913995, -0.0267031602561, -0.0164462700486, 0.0684798806906, 0.0345733836293, -0.0187842957675, 0.0153409801424, -0.0600332841277, -0.0078915217891, 0.0357474274933, -0.0557165890932, -0.0635056793690, 0.0291962865740, -0.0386880934238, -0.0035202233121, 0.0225772056729, -0.0533725097775, -0.0658042356372, 0.0504138357937, -0.0597238913178, 0.0122005594894, -0.0389957316220, -0.0541002452374, -0.0075146118179, -0.0483392104506, 0.0551033169031, -0.0252715852112, -0.0429793372750, 0.0612576045096, -0.0458488911390, -0.0352419875562, 0.0243046805263, -0.0437080375850, -0.0052771838382, -0.0265974178910, -0.0421097688377, 0.0151753788814, -0.0307148881257, 0.0006116589066, 0.0412533096969, 0.0092991730198, -0.0000115786397, -0.0202524662018, 0.0346902944148, 0.0093821566552, -0.0324474982917, -0.0409316569567, 0.0013939714991, 0.0403474569321, 0.0083765080199, -0.0112046385184, 0.0578867271543, 0.0666967108846, -0.0673155635595, -0.0249894130975, 0.0554029382765, -0.0046169259585, -0.0290529411286, 0.0244359970093, 0.0352205634117, 0.0659069046378, 0.0631165504456, -0.0120722698048, 0.0312446542084, -0.0552550815046, -0.0544660538435, -0.0672777444124, 0.0180989969522, 0.0648827478290, 0.0124895591289, -0.0310676731169, 0.0021332120523, -0.0093379272148, 0.0304952934384, -0.0027399696410, -0.0621561706066, 0.0512661561370, 0.0127604855224, -0.0206079948694, 0.0339347571135, -0.0258761253208, -0.0397334881127, 0.0543530508876, -0.0498517528176, 0.0122524183244, -0.0102628832683, 0.0382676012814, -0.0015228119446, -0.0433233827353, 0.0486881881952, 0.0183131154627, -0.0398265682161, 0.0387623682618, -0.0459488555789, -0.0443309508264, 0.0612711459398, 0.0265919025987, -0.0684014111757, 0.0013980026124, 0.0358454175293, 0.0228120703250, 0.0241509452462, 0.0118547063321, -0.0102182636037, 0.0537520274520, 0.0478724911809, -0.0624282956123, -0.0147566748783, 0.0024576552678, -0.0381100066006, 0.0028366695624, -0.0566016733646, -0.0211754441261, -0.0528318993747, 0.0404150076210, -0.0297788996249, 0.0174023900181, -0.0013798562577, -0.0254717562348, -0.0543442405760, -0.0360026657581, -0.0613355822861, -0.0673414692283, -0.0303709786385, 0.0446297861636, -0.0277170538902, -0.0441045016050, 0.0252485051751, -0.0289177726954, -0.0370716601610, -0.0330664366484, 0.0243482552469, -0.0619032755494, 0.0291412472725, 0.0509533099830, 0.0398054569960, -0.0462440922856, -0.0478792153299, 0.0147064998746, 0.0207769833505, 0.0117088537663, -0.0356273464859, 0.0235458817333, 0.0209015011787, -0.0476468540728, -0.0368635281920, -0.0143609056249, 0.0536831691861, -0.0657305046916, -0.0116938222200, 0.0585580207407, -0.0588041320443, 0.0445168502629, 0.0251051839441, 0.0239275787026, -0.0225994605571, 0.0036281177308, -0.0211161579937, -0.0558027289808, -0.0552404969931, 0.0168949849904, 0.0091803045943, -0.0054350811988, 0.0061285947450, 0.0477907583117, -0.0003462028399, -0.0009319795063, -0.0346464179456, 0.0312883518636, -0.0659679174423, 0.0281860101968, -0.0513293482363, 0.0484768226743, -0.0650640800595, -0.0569263137877, -0.0653557032347, -0.0272217430174, -0.0539697594941, 0.0676833912730, 0.0511836372316, -0.0421667397022, -0.0341775752604, -0.0079107163474, -0.0467268750072, -0.0343769937754, -0.0649786964059, -0.0184155721217, 0.0597504489124, -0.0178596582264, 0.0683515593410, 0.0529650524259, -0.0431822091341, 0.0343086160719, 0.0526405684650, 0.0487487092614, -0.0460878908634, 0.0048970892094, 0.0557653903961, -0.0021134179551, -0.0591451376677, -0.0297083612531, -0.0082632899284, -0.0111776161939, 0.0223796255887, 0.0079224416986, -0.0624047033489, -0.0382587164640, 0.0489024519920, -0.0633173137903, 0.0511702336371, -0.0660211667418, -0.0418707057834, -0.0030674410518, -0.0551119893789, -0.0436706803739, -0.0302980206907, 0.0095856264234, -0.0489545799792, 0.0395703949034, 0.0165954083204, 0.0358901619911, -0.0332377143204, 0.0222057253122, -0.0188683457673, 0.0234641786665, -0.0315079800785, -0.0327407196164, -0.0056902612559, -0.0179717186838, -0.0146656269208, -0.0215108450502, -0.0377597175539, 0.0357192344964, 0.0550534874201, -0.0189604666084, 0.0352168604732, -0.0137498620898, -0.0377407521009, -0.0449383221567, -0.0245475396514, -0.0206825304776, 0.0299488920718, 0.0153572419658, -0.0601869113743, -0.0217065066099, -0.0458634458482, -0.0118992449716, -0.0550691448152, -0.0458328276873, 0.0122875943780, -0.0279675293714, -0.0166602991521, -0.0168698336929, 0.0041337646544, 0.0279194936156, 0.0181147549301, -0.0065155699849, 0.0612570680678, 0.0550380311906, -0.0647802576423, 0.0539484471083, -0.0383409857750, 0.0350464805961, 0.0553037859499, 0.0002483346616, -0.0294341109693, 0.0027747026179, -0.0638157725334, -0.0436283759773, -0.0317721217871, 0.0211276169866, -0.0011978275143, 0.0513460636139, 0.0085793463513, -0.0439087934792, -0.0283695366234, 0.0333790406585, -0.0351452417672, -0.0578376688063, 0.0541224144399, 0.0528427436948, -0.0672248080373, -0.0360749475658, 0.0293335281312, 0.0664114803076, 0.0617466717958, 0.0637782588601, 0.0155821675435, -0.0035910175648, 0.0438609719276, 0.0475842989981, 0.0132898595184, 0.0012729525333, 0.0540467239916, 0.0151872802526, -0.0257427096367, -0.0131528014317, -0.0248116962612, -0.0210473276675, -0.0464549921453, -0.0422575473785, -0.0657136142254, 0.0542529858649, 0.0061278371140, 0.0673976242542, -0.0449979156256, -0.0212433971465, -0.0340772606432, 0.0019130512374, -0.0317922569811, 0.0583522394300, -0.0363407023251, -0.0624134130776, 0.0130140185356, 0.0400142930448, -0.0466304458678, -0.0109439222142, -0.0446319356561, -0.0171345509589, -0.0487909317017, 0.0437846295536, 0.0019583525136, 0.0516138896346, -0.0361884497106, 0.0283856391907, 0.0371749475598, -0.0575923211873, -0.0652431994677, 0.0669225528836, 0.0169154517353, 0.0692605227232, -0.0173198524863, -0.0471516959369, 0.0670065879822, -0.0050814659335, 0.0597129538655, -0.0472941845655, 0.0626378953457, -0.0635653883219, -0.0122372377664, 0.0582867786288, -0.0231054425240, -0.0666577219963, 0.0215429607779, -0.0426039807498, 0.0560692548752, -0.0678018778563, 0.0102849081159, -0.0043161837384, -0.0156547892839, 0.0116339037195, 0.0447128936648, -0.0641902759671, 0.0379237495363, 0.0127744376659, -0.0303656272590, 0.0532444678247, -0.0006917767460, -0.0624389313161, -0.0449615120888, 0.0469019189477, -0.0408728681505, 0.0607651472092, 0.0024413508363, -0.0538806952536, -0.0400642156601, 0.0097479997203, -0.0042030881159, 0.0135799432173, 0.0653689727187, 0.0610392168164, 0.0062969634309, -0.0577609091997, 0.0388601236045, -0.0179005749524, -0.0189152080566, 0.0353694669902, -0.0468403138220, 0.0214027892798, 0.0154179269448, 0.0685004293919, 0.0060145794414, -0.0092617683113, -0.0689467117190, -0.0451377592981, 0.0317570045590, 0.0325722396374, -0.0184066426009, 0.0154998060316, -0.0520873926580, -0.0645181015134, 0.0692721679807, -0.0097982771695, 0.0347196087241, 0.0665197074413, -0.0150536224246, 0.0473142452538, 0.0433647744358, 0.0129636889324, -0.0368533246219, 0.0457128584385, 0.0083618042991, -0.0640804693103, -0.0477662011981, -0.0134076057002, 0.0354182608426, -0.0145021425560, 0.0170417260379, -0.0007579426747, -0.0008366553229, -0.0470711812377, 0.0358443409204, -0.0200447533280, 0.0361146591604, -0.0090223141015, -0.0318850725889, 0.0063807996921, -0.0343965701759, -0.0678868815303, 0.0583656542003, 0.0344657115638, -0.0686177536845, -0.0099396901205, 0.0339290164411, 0.0387557074428, -0.0160030238330, -0.0470471419394, -0.0064152488485, -0.0156827401370, 0.0236296374351, 0.0064024943858, -0.0056250565685, -0.0645225271583, 0.0440347045660, -0.0245037414134, 0.0644236505032, 0.0348059274256, -0.0378475748003, 0.0594048947096, -0.0598191954195, -0.0039312345907, 0.0064033772796, -0.0401807352901, -0.0171712581068, -0.0576319359243, -0.0097824567929, 0.0090644694865, 0.0318288020790, -0.0143214156851, -0.0507919080555, -0.0016054868465, 0.0051714340225, -0.0599604733288, -0.0233344994485, -0.0396887660027, -0.0210787076503, 0.0495290569961, -0.0131982676685, -0.0661662071943, 0.0592084899545, 0.0512131825089, 0.0019501796924, -0.0255919732153, 0.0475366413593, 0.0222401265055, 0.0524421557784, -0.0573170371354, 0.0035050380975, 0.0145549951121, 0.0377277471125, 0.0584187060595, 0.0072203958407, 0.0034714553040, 0.0296381190419, -0.0190939623863, -0.0301839504391, -0.0156455338001, 0.0235823672265, 0.0473495125771, -0.0487996786833, -0.0573714114726, 0.0273505114019, -0.0461691021919, -0.0312686339021, -0.0581659041345, -0.0400361418724, 0.0333017259836, 0.0416676662862, 0.0197928361595, 0.0000790625782, -0.0177321787924, 0.0214553177357, -0.0038641353603, 0.0540127195418, -0.0210346430540, 0.0311465561390, 0.0372070930898, 0.0652922689915, -0.0318281948566, -0.0359437279403, -0.0404091402888, 0.0607062727213, 0.0539089664817, 0.0200349334627, -0.0220786631107, 0.0501048043370, -0.0155555158854, 0.0323174595833, -0.0214064475149, -0.0100964577869, 0.0110828401521, 0.0613316670060, 0.0682136490941, -0.0354861170053, 0.0332154929638, -0.0265429820865, 0.0182827338576, -0.0048135695979, 0.0055109197274, 0.0626161545515, -0.0074463537894, -0.0256220661104, -0.0389223396778, 0.0509137585759, -0.0275613386184, -0.0615614652634, -0.0016578481300, -0.0211516730487, -0.0476541481912, -0.0000956498916, -0.0256297960877, -0.0609526894987, 0.0455182977021, -0.0400106608868, -0.0588160194457, -0.0327582247555, 0.0007810615934, 0.0120144877583, -0.0373652763665, 0.0217486564070, 0.0033701485954, -0.0106378570199, -0.0060243359767, -0.0463426932693, 0.0451269336045, -0.0476656705141, -0.0280226692557, 0.0457743778825, 0.0387357436121, 0.0480651743710, 0.0038444439415, -0.0686697810888, 0.0416148677468, 0.0452510304749, -0.0009502113098, 0.0152564430609, -0.0245693083853, 0.0238289702684, -0.0090265078470, 0.0486948639154, -0.0586583204567, -0.0424309000373, -0.0204665269703, -0.0140219638124, 0.0305489450693, -0.0399760641158, 0.0645663067698, -0.0526269301772, -0.0315134860575, -0.0083967149258, -0.0204860214144, 0.0285804513842, -0.0087174680084, 0.0211307890713, -0.0234261751175, 0.0251299794763, 0.0540335401893, 0.0440955199301, -0.0432154051960, 0.0564427711070, -0.0493514202535, 0.0137220788747, -0.0264033842832, -0.0057341875508, 0.0607124157250, -0.0319659151137, -0.0665022581816, -0.0393006838858, 0.0584053769708, 0.0035898231436, -0.0410655178130, -0.0407804772258, 0.0074902111664, -0.0511276088655, -0.0447195321321, 0.0501343682408, 0.0535991899669, 0.0313609652221, -0.0692401677370, 0.0212998371571, -0.0268744155765, -0.0422476343811, -0.0065859975293, -0.0416816174984, 0.0080038262531, 0.0069015603513, -0.0188294630498, -0.0616413541138, -0.0649991855025, -0.0458334013820, 0.0069582872093, 0.0223732143641, -0.0433896183968, -0.0657256096601, 0.0260016303509, 0.0349746122956, -0.0694817006588, -0.0427941270173, -0.0584305487573, -0.0214299000800, -0.0250887945294, -0.0556784272194, 0.0288180522621, -0.0506717227399, 0.0182615648955, 0.0542281754315, -0.0054309782572, -0.0231135543436, -0.0494528785348, 0.0495791360736, 0.0514748468995, 0.0222192630172, 0.0585878156126, 0.0314469523728, 0.0114993462339, -0.0464390516281, 0.0108708953485, 0.0449602752924, -0.0110282730311, -0.0330398418009, -0.0349405743182, -0.0405136458576, 0.0538865663111, 0.0603471398354, -0.0149517254904, 0.0449479743838, 0.0516617335379, -0.0402810648084, -0.0462688915431, -0.0009961841861, -0.0319099389017, -0.0613393858075, 0.0041891280562, 0.0037467007060, 0.0161557756364, 0.0510130412877, -0.0349087528884, 0.0038933989126, -0.0447535365820, -0.0260992739350, -0.0477008782327, -0.0159502755851, -0.0582098141313, -0.0510100349784, 0.0086061041802, 0.0075038555078, 0.0227582249790, 0.0142035065219, -0.0293443370610, 0.0247672274709, -0.0069508235902, -0.0551667325199, 0.0494553148746, -0.0441034175456, 0.0069904909469, -0.0335538834333, 0.0438919290900, -0.0492988526821, 0.0425542816520, -0.0631604269147, -0.0021088956855, -0.0224931817502, 0.0151183661073, -0.0197112970054, 0.0410965308547, -0.0513175055385, 0.0209846068174, 0.0660822242498, -0.0094816638157, -0.0474526248872, 0.0293365921825, 0.0591192506254, 0.0236888844520, -0.0166316963732, -0.0285189598799, -0.0154028497636, 0.0571407191455, -0.0551714077592, 0.0038205538876, 0.0601701848209, 0.0159402135760, 0.0057393442839, 0.0634563863277, 0.0354968048632, -0.0367346554995, 0.0094723831862, -0.0563268922269, 0.0136384041980, -0.0144295394421, -0.0024973449763, 0.0311784129590, 0.0637731030583, -0.0680070072412, -0.0502613931894, 0.0675088167191, 0.0547946020961, -0.0193978082389, 0.0608316808939, -0.0511559508741, 0.0195507276803, -0.0031791494694, -0.0149135412648, -0.0474276132882, 0.0438880994916, -0.0127233117819, 0.0004557385982, 0.0542157813907, 0.0197642147541, -0.0217884611338, -0.0430606603622, 0.0034658156801, -0.0394583679736, 0.0570128075778, -0.0630893260241, -0.0548634752631, 0.0121006667614, 0.0392027907073, -0.0460896603763, 0.0642936900258, 0.0563637837768, -0.0188391599804, 0.0168941300362, 0.0008074780344, 0.0139269111678, -0.0671197995543, -0.0046340879053, -0.0575322583318, 0.0016508414410, 0.0226757656783, 0.0579782575369, 0.0628532394767, -0.0675468146801, 0.0579198002815, 0.0684356242418, -0.0452705249190, 0.0575516410172, -0.0004575211788, -0.0517360456288, 0.0644518285990, 0.0218909047544, 0.0403999239206, 0.0234511569142, -0.0054991585203, 0.0455586053431, 0.0075812824070, 0.0323231443763, 0.0477436818182, 0.0226151682436, 0.0686739981174, 0.0434128344059, 0.0520617701113, -0.0260098893195, -0.0010768730426, -0.0089112538844, -0.0456975735724, -0.0289110876620, -0.0218792799860, -0.0255902092904, 0.0443818680942, 0.0514019615948, 0.0090395295992, -0.0243861339986, 0.0119201475754, 0.0416319519281, -0.0652158483863, 0.0238703489304, -0.0437593013048, -0.0143852522597, 0.0063552497886, -0.0250693503767, 0.0485725477338, 0.0022757898550, -0.0381497628987, -0.0068255783990, 0.0652051419020, 0.0316559635103, 0.0529781170189, 0.0046160924248, 0.0682855769992, 0.0548966750503, -0.0465009473264, 0.0055891936645, -0.0316074639559, -0.0114200003445, -0.0581236332655, 0.0553014129400, 0.0225490964949, 0.0353641174734, 0.0500693880022, -0.0528418757021, 0.0184563547373, -0.0330431871116, -0.0645299479365, 0.0633585527539, 0.0691777914762, 0.0250198841095, 0.0349951609969, 0.0511070489883, 0.0584451630712, -0.0390456430614, -0.0566795766354, 0.0317730344832, 0.0339571647346, 0.0531337112188, 0.0509994924068, -0.0451772361994, 0.0443326197565, 0.0023096001241, -0.0000096648546, -0.0161624774337, 0.0105490554124, 0.0612019412220, -0.0323984585702, 0.0201095789671, 0.0369088798761, 0.0175900515169, 0.0545012131333, -0.0171223301440, 0.0650360286236, 0.0616915300488, 0.0159896593541, -0.0089987544343, 0.0335485860705, -0.0159807354212, -0.0240117125213, 0.0377883613110, 0.0422129593790, -0.0386636331677, -0.0562771037221, 0.0349253937602, -0.0578170008957, 0.0656757354736, 0.0433501787484, -0.0278408620507, 0.0016008331440, -0.0438138507307, 0.0523358955979, 0.0459259375930, -0.0386596843600, 0.0020565059967, 0.0632037445903, -0.0530977696180, -0.0014523942955, 0.0681469440460, 0.0260064732283, 0.0244674272835, -0.0053069298156, -0.0656248554587, -0.0585995465517, -0.0361611358821, 0.0346776619554, -0.0056461580098, -0.0090062776580, 0.0406081266701, -0.0244304612279, -0.0314049795270, -0.0523505657911, 0.0320096798241, 0.0695598945022, 0.0253381896764, -0.0146677000448, 0.0631017908454, -0.0458735525608, -0.0075636147521, -0.0058426046744, 0.0188884660602, 0.0144489314407, -0.0451136790216, -0.0661745071411, 0.0496276915073, -0.0125051466748, 0.0525775402784, -0.0108007406816, 0.0556745491922, 0.0678403973579, -0.0249747764319, -0.0354773476720, 0.0674599260092, -0.0168824438006, -0.0412524715066, 0.0520741194487, 0.0594010613859, -0.0094874706119, 0.0665109157562, 0.0117212347686, -0.0393920056522, 0.0440470166504, 0.0016150387237, -0.0615358091891, 0.0586395710707, -0.0442209094763, -0.0203235894442, 0.0293058212847, 0.0103026507422, -0.0214664991945, -0.0234976261854, 0.0410337448120, 0.0144247123972, -0.0655889436603, -0.0387463681400, 0.0300549138337, -0.0074801389128, -0.0377934612334, 0.0228036977351, -0.0114812301472, -0.0000522318733, -0.0227844621986, 0.0203239470720, 0.0514742620289, -0.0150134926662, -0.0633749738336, -0.0643145665526, 0.0374140590429, -0.0588505193591, -0.0132753774524, -0.0016534816241, -0.0230841804296, 0.0429675988853, -0.0283050760627, 0.0110316649079, 0.0324098207057, 0.0034841883462, -0.0547318607569, -0.0267853848636, -0.0390536412597, 0.0646204203367, -0.0084503320977, 0.0125721590593, 0.0228649210185, -0.0529437288642, 0.0640925988555, -0.0287136416882, -0.0049993456341, -0.0201230086386, 0.0309491865337, 0.0500297844410, 0.0451879575849, -0.0623992644250, -0.0615481510758, -0.0454091690481, -0.0332015343010, -0.0682323649526, -0.0569941364229, -0.0085771242157, -0.0493578612804, 0.0321196168661, 0.0424188040197, -0.0146046951413, 0.0645611062646, -0.0516126118600, 0.0351593531668, -0.0626481249928, -0.0347017645836, 0.0262508932501, -0.0490289218724, -0.0654620900750, 0.0090825380757, 0.0375972799957, -0.0592457726598, 0.0507573150098, 0.0386318974197, -0.0155228637159, -0.0446364693344, -0.0579648464918, 0.0633695200086, -0.0279881767929, -0.0327962674201, 0.0444747768342, 0.0366537757218, -0.0099005186930, -0.0052612642758, -0.0635225027800, -0.0556649826467, 0.0445567853749, -0.0490714833140, -0.0172844137996, 0.0316098891199, 0.0638183727860, 0.0577188134193, -0.0079656867310, -0.0043618520722, 0.0445467978716, -0.0044182753190, 0.0360529050231, 0.0231198631227, -0.0230463445187, -0.0670482292771, 0.0090592009947, 0.0551034770906, 0.0005363916280, 0.0365019068122, -0.0481697544456, 0.0214227493852, 0.0406790375710, -0.0410400442779, 0.0281263031065, -0.0477430075407, 0.0087759345770, 0.0169169511646, 0.0494555868208, 0.0646220147610, -0.0006333672791, -0.0190997030586, -0.0550055019557, 0.0152976401150, -0.0508921965957, 0.0499358028173, 0.0314035750926, 0.0027133165859, 0.0387258119881, 0.0172895323485, 0.0512583032250, 0.0074798255228, 0.0358285866678, 0.0001522568782, -0.0212023910135, 0.0570655539632, -0.0199330318719, -0.0691288039088, -0.0381008535624, 0.0582649968565, -0.0416270457208, 0.0578832924366, -0.0379081666470, -0.0561623647809, 0.0435851030052, -0.0156153980643, 0.0351086892188, 0.0092870611697, -0.0374758802354, 0.0569853894413, -0.0025747548789, -0.0193167757243, 0.0288666151464, 0.0244551580399, 0.0249366275966, -0.0232534483075, 0.0592264905572, 0.0477530546486, -0.0440163426101, -0.0646642595530, -0.0066647855565, 0.0451162308455, -0.0210421830416, -0.0558461397886, 0.0417207181454, -0.0430620312691, 0.0023094767239, -0.0690372064710, -0.0336462333798, -0.0414431616664, -0.0030376438517, 0.0256263166666, -0.0623943954706, -0.0199253056198, -0.0660009980202, 0.0412476323545, -0.0171184800565, -0.0477918796241, -0.0101071782410, -0.0192784406245, -0.0173056963831, -0.0023291984107, -0.0119649600238, 0.0361406840384, -0.0298968609422, 0.0348740257323, 0.0397529825568, 0.0028712416533, -0.0027865942102, 0.0364405922592, 0.0296660922468, -0.0257807169110, 0.0450040698051, 0.0047423606738, -0.0077393273823, -0.0339545644820, -0.0391165539622, -0.0598281584680, -0.0443959012628, 0.0500275120139, 0.0359366908669, 0.0111921969801, 0.0161337107420, 0.0141653660685, -0.0127059221268, -0.0345678739250, -0.0390178039670, 0.0232455972582, 0.0414760150015, 0.0038636038080, 0.0336977653205, -0.0364946052432, -0.0656922236085, 0.0315705537796, -0.0201336089522, 0.0207116547972, 0.0557883754373, 0.0481364279985, 0.0107472967356, 0.0167875494808, 0.0520924925804, -0.0188326165080, 0.0054397620261, 0.0323566533625, 0.0204005297273, -0.0407709032297, 0.0405185334384, -0.0110202357173, -0.0469312928617, 0.0256828404963, 0.0268460735679, -0.0364479310811, -0.0447110757232, 0.0630848184228, -0.0382959209383, -0.0528057403862, 0.0045968638733, -0.0381334125996, -0.0481123328209, -0.0647846013308, -0.0284436959773, -0.0107544315979, -0.0107993772253, -0.0613908544183, 0.0222692470998, 0.0170301552862, 0.0450620427728, -0.0602023340762, -0.0191125236452, 0.0505530908704, -0.0048290756531, -0.0102065121755, 0.0620815344155, -0.0248599331826, -0.0045837271027, -0.0155213652179, 0.0399925597012, 0.0222748741508, 0.0010956643382, -0.0440370216966, -0.0039415326901, -0.0314793474972, 0.0268320441246, -0.0650646090508, 0.0064274640754, -0.0124762281775, 0.0193811766803, -0.0697704851627, -0.0649077221751, -0.0080456165597, 0.0445517078042, 0.0558921359479, 0.0041623828001, 0.0087173189968, 0.0662311390042, 0.0699080899358, 0.0382636524737, 0.0089499466121, 0.0398660451174, -0.0384387001395, 0.0554616712034, 0.0640506744385, 0.0477336309850, 0.0135740013793, -0.0236350502819, 0.0663751289248, 0.0480423532426, -0.0306401178241, -0.0498634278774, -0.0265297479928, -0.0186869688332, -0.0476943217218, 0.0272668264806, -0.0247736182064, 0.0675850287080, -0.0624671317637, -0.0465335398912, 0.0524634048343, -0.0364743731916, 0.0611465424299, -0.0693895742297, 0.0389918908477, 0.0686991363764, 0.0155479479581, 0.0354000069201, -0.0447346493602, 0.0186671558768, -0.0429751724005, -0.0079514076933, -0.0024992933031, -0.0059213885106, -0.0420322008431, 0.0033902288415, -0.0087800286710, -0.0216269586235, -0.0476902574301, 0.0398615859449, -0.0497313328087, -0.0536563955247, -0.0127226561308, 0.0141027057543, 0.0588907152414, 0.0597880519927, -0.0615552961826, 0.0147029189393, 0.0306298695505, 0.0592627935112, -0.0521056540310, -0.0105938864872, 0.0476089902222, -0.0188037529588, 0.0552764162421, -0.0218034908175, 0.0665861517191, -0.0349300615489, -0.0311103593558, 0.0344799794257, 0.0261700917035, 0.0270779691637, -0.0324882417917, -0.0435337424278, -0.0534470640123, 0.0042421254329, -0.0250770449638, 0.0124899251387, 0.0547687746584, 0.0620292350650, 0.0510927103460, -0.0384465381503, 0.0462211444974, -0.0189688075334, 0.0020482901018, -0.0149605963379, -0.0000401604266, 0.0691233053803, 0.0192932188511, 0.0187180936337, -0.0010244286386, -0.0468528605998, -0.0599047988653, -0.0463247708976, 0.0586450658739, 0.0355153940618, -0.0671506822109, 0.0009555261931, -0.0247285291553, 0.0518494509161, 0.0498143136501, 0.0370417237282, -0.0190615896136, -0.0199652183801, 0.0195641163737, -0.0429150536656, -0.0118700200692, 0.0167031344026, 0.0621697977185, -0.0504817701876, -0.0028375945985, -0.0321213752031, -0.0098700150847, 0.0477291084826, 0.0414062663913, 0.0051633040421, -0.0374527610838, -0.0273329336196, -0.0182235073298, 0.0288177523762, 0.0066598160192, 0.0407689772546, -0.0481383465230, -0.0040684971027, -0.0445414222777, 0.0662928745151, -0.0312145426869, -0.0266553796828, -0.0299540702254, 0.0190925318748, -0.0203556306660, -0.0100520337000, -0.0258041284978, -0.0027962164022, -0.0506036691368, -0.0317231640220, 0.0213811341673, 0.0321844406426, 0.0356630086899, -0.0620130598545, 0.0616535171866, 0.0472150966525, -0.0077204098925, 0.0217037852854, 0.0562960356474, 0.0560946799815, 0.0449485741556, -0.0170361772180, 0.0267702806741, 0.0221313480288, -0.0468696504831, 0.0252968482673, -0.0072551411577, -0.0190663859248, -0.0057674203999, 0.0684551522136, 0.0350831486285, 0.0306055638939, -0.0434907600284, -0.0370517000556, -0.0138748297468, 0.0422828719020, 0.0035621256102, -0.0661544501781, 0.0559681579471, 0.0416857041419, -0.0230916198343, 0.0693543478847, 0.0519013591111, 0.0593062452972, 0.0423028059304, -0.0112818181515, -0.0133956409991, 0.0370648689568, -0.0684894025326, 0.0392506867647, 0.0461698807776, -0.0014618061250, -0.0696386471391, -0.0030574887060, 0.0582926794887, -0.0091121960431, 0.0002687453816, 0.0362898856401, 0.0639044791460, 0.0647246688604, 0.0415648855269, 0.0545911714435, -0.0038484281395, 0.0604481771588, -0.0365680046380, -0.0073309331201, 0.0099779348820, -0.0097872000188, 0.0413087271154, 0.0018403317081, -0.0677701011300, -0.0262479446828, 0.0327105522156, 0.0032090805471, 0.0038796055596, 0.0654328316450, -0.0065312781371, 0.0146344751120, -0.0430108718574, 0.0568808577955, -0.0248235035688, -0.0660683661699, 0.0465586856008, -0.0068944981322, 0.0154298851267, 0.0267588701099, -0.0588563419878, 0.0590640231967, 0.0449940301478, -0.0598413087428, 0.0093899834901, -0.0010353632970, -0.0178880207241, -0.0483074262738, -0.0416816510260, 0.0482050888240, -0.0519142597914, -0.0307523496449, 0.0511902198195, 0.0126074124128, 0.0192663613707, 0.0528852343559, -0.0659047588706, -0.0359268821776, -0.0180783383548, 0.0518167056143, 0.0635409876704, 0.0289801955223, -0.0504873581231, 0.0348049029708, -0.0372213907540, 0.0345111824572, -0.0399525985122, 0.0207249131054, -0.0421393066645, -0.0243177339435, 0.0196651630104, 0.0032553046476, -0.0274397544563, -0.0152520453557, -0.0363861434162, 0.0684307068586, 0.0129824522883, 0.0488234758377, 0.0522707737982, -0.0568898469210, 0.0285475552082, -0.0059268698096, 0.0478491894901, -0.0363608598709, -0.0037817358971, 0.0148461209610, 0.0286312140524, 0.0405193828046, 0.0662002190948, 0.0251958258450, -0.0364362709224, -0.0211506392807, 0.0141472956166, -0.0397135876119, 0.0002872450568, -0.0269127730280, 0.0181610528380, -0.0474705584347, -0.0584538653493, 0.0326383747160, -0.0153282377869, 0.0103248972446, 0.0132620101795, 0.0270785111934, 0.0489604286849, -0.0231479741633, 0.0294681396335, -0.0498568229377, -0.0566488802433, -0.0205984320492, 0.0043988828547, 0.0566430762410, 0.0197515115142, 0.0405294373631, 0.0047070495784, -0.0267568510026, -0.0138534680009, -0.0492347143590, -0.0126583036035, 0.0150392502546, 0.0216524899006, 0.0009233488236, 0.0075844712555, -0.0149080595002, -0.0008517234819, -0.0526027195156, -0.0065236422233, 0.0693485662341, 0.0363563410938, 0.0126998154446, 0.0642270743847, 0.0050410339609, 0.0025776948314, 0.0374997742474, -0.0109592508525, 0.0148191461340, -0.0287709925324, 0.0222979858518, 0.0172351617366, -0.0569738075137, 0.0147004388273, -0.0500591918826, -0.0037250258029, 0.0073885000311, -0.0283295400441, -0.0548993423581, 0.0170335769653, -0.0452586710453, 0.0190116018057, -0.0410942845047, 0.0274560842663, 0.0508477315307, -0.0522562786937, 0.0645157620311, -0.0331114754081, -0.0353840477765, -0.0067432383075, -0.0313023366034, 0.0167860705405, -0.0029659175780, -0.0132433976978, 0.0501153543591, 0.0475048646331, -0.0371494702995, 0.0394698157907, 0.0546717569232, 0.0600919574499, 0.0098845213652, -0.0553969368339, 0.0327330194414, 0.0556097254157, -0.0611758790910, 0.0677894204855, 0.0476975664496, 0.0601525157690, 0.0095997452736, -0.0347590260208, 0.0003254537005, 0.0682407766581, 0.0323309861124, -0.0189626403153, 0.0640924274921, 0.0043473714031, 0.0458559952676, -0.0270809624344, 0.0252803042531, -0.0046104732901, -0.0632601603866, -0.0320942588151, 0.0686485096812, 0.0668174177408, 0.0618152618408, 0.0454170070589, -0.0609995871782, 0.0391309559345, 0.0472172535956, 0.0482586100698, 0.0264085736126, 0.0024371875916, 0.0572404116392, 0.0569372177124, 0.0698779299855, 0.0285732112825, 0.0402718968689, -0.0382544808090, 0.0557358041406, 0.0332210101187, -0.0682865977287, 0.0012616198510, -0.0307470709085, -0.0414793230593, 0.0473467260599, -0.0069075119682, -0.0531097874045, -0.0347566083074, -0.0436497740448, -0.0389849618077, -0.0275876689702, 0.0209226682782, 0.0538525171578, 0.0269679669291, -0.0451806485653, 0.0427273660898, 0.0402039065957, -0.0279439203441, -0.0142871886492, 0.0394726879895, -0.0131719717756, -0.0446594841778, -0.0127575984225, -0.0155105404556, 0.0118886372074, -0.0079803494737, -0.0172780156136, 0.0693231076002, -0.0625126510859, -0.0224346723408, -0.0573149807751, -0.0057578291744, 0.0441653989255, 0.0111856600270, 0.0328201949596, 0.0323089212179, 0.0279164239764, 0.0566203445196, 0.0158157385886, -0.0439732335508, 0.0380872972310, -0.0309354048222, -0.0345959924161, -0.0030345574487, -0.0407455675304, 0.0110191013664, -0.0075114779174, 0.0565446913242, -0.0572685413063, 0.0099834240973, 0.0165319256485, -0.0039385259151, -0.0082964794710, 0.0244437754154, 0.0083298282698, -0.0360816381872, 0.0212954971939, 0.0461358875036, 0.0545120537281, -0.0673777461052, 0.0391735099256, -0.0511093474925, -0.0475417226553, -0.0078137153760, 0.0317619293928, -0.0396850630641, -0.0107432743534, 0.0238156169653, -0.0103797437623, 0.0055900611915, 0.0413800105453, -0.0064907111228, -0.0385180935264, 0.0658837109804, -0.0412956513464, 0.0453215055168, -0.0113298697397, 0.0186161063612, -0.0352699756622, -0.0462802276015, 0.0336308069527, 0.0319031924009, -0.0340329557657, -0.0311765074730, 0.0466214008629, 0.0691840425134, -0.0211451165378, -0.0196337383240, 0.0516485907137, 0.0320358201861, -0.0343531556427, 0.0211491435766, 0.0669758021832, 0.0131711801514, 0.0300125144422, 0.0114080579951, -0.0616381093860, -0.0272920280695, -0.0193990152329, -0.0011626002379, 0.0027904941235, -0.0365397073328, 0.0032513181213, -0.0227146949619, 0.0558684170246, -0.0344302095473, 0.0694989189506, 0.0607647635043, -0.0170830376446, 0.0404204539955, 0.0298913121223, -0.0510839968920, -0.0335903614759, 0.0151082500815, -0.0244883485138, -0.0131933614612, 0.0457331836224, -0.0359103232622, -0.0140133863315, -0.0372538268566, 0.0025915126316, 0.0228848531842, -0.0624024346471, -0.0172305218875, 0.0642500370741, 0.0693276971579, -0.0019663567655, 0.0031279944815, -0.0468547604978, 0.0449937582016, -0.0521768033504, 0.0508090965450, 0.0444136150181, -0.0041970014572, -0.0412761308253, 0.0044774035923, 0.0687831863761, -0.0584845133126, 0.0639278665185, -0.0636851191521, -0.0036050165072, 0.0221440941095, -0.0274868421257, -0.0425512790680, -0.0348604768515, 0.0608426481485, -0.0026644712780, 0.0060976818204, 0.0356649234891, -0.0283645205200, 0.0354046411812, -0.0680538862944, 0.0108673945069, 0.0595600008965, -0.0359438620508, -0.0428306311369, 0.0352626144886, -0.0696647316217, -0.0671834051609, 0.0382197089493, 0.0573518872261, -0.0008112433716, 0.0375963598490, -0.0433887876570, -0.0060325060040, -0.0082466760650, 0.0446773096919, -0.0037808972411, 0.0565724074841, -0.0425690524280, -0.0178978648037, -0.0499970801175, 0.0266554336995, 0.0697448551655, 0.0313844271004, -0.0231301840395, -0.0072194659151, -0.0648680031300, 0.0185505915433, -0.0639247596264, -0.0295756366104, 0.0242322031409, 0.0137432925403, 0.0622860603034, 0.0614193454385, -0.0472843199968, 0.0544594191015, 0.0156647879630, -0.0070757898502, -0.0168388988823, -0.0292037427425, -0.0533853024244, -0.0698283314705, 0.0077402330935, -0.0242923051119, -0.0089810034260, 0.0174312237650, -0.0434617809951, 0.0192214585841, 0.0100326202810, -0.0302426703274, -0.0442145615816, 0.0128782214597, 0.0139019656926, 0.0023427649867, 0.0097332531586, -0.0068472074345, -0.0294379014522, 0.0319898687303, 0.0316618718207, 0.0378255695105, 0.0008332075668, 0.0300193112344, -0.0683047175407, -0.0676476284862, 0.0478265918791, 0.0138386739418, 0.0507309250534, -0.0205259807408, -0.0279059465975, -0.0090238479897, 0.0367292910814, -0.0655743256211, 0.0430931188166, 0.0068260431290, -0.0139764752239, -0.0554977357388, 0.0371736437082, -0.0315365530550, 0.0549745187163, 0.0575657486916, -0.0569095350802, -0.0326916463673, -0.0172259788960, -0.0447903573513, 0.0369695313275, -0.0324528254569, -0.0561087504029, -0.0143374679610, -0.0606521628797, 0.0548581741750, 0.0110389422625, 0.0689754709601, 0.0114119341597, 0.0279369838536, -0.0585523620248, -0.0379421934485, 0.0304625369608, 0.0438367798924, 0.0634910911322, -0.0377238765359, 0.0593212433159, 0.0319885686040, -0.0677501633763, 0.0541396662593, -0.0479168072343, -0.0389400795102, 0.0461545474827, 0.0654874816537, 0.0068259844556, 0.0461741611362, -0.0266754254699, -0.0593487657607, 0.0104219773784, -0.0553461201489, 0.0415235571563, -0.0101036792621, -0.0032644046005, 0.0065538892522, -0.0470639206469, -0.0295193009079, -0.0496520809829, -0.0515517070889, -0.0620473735034, 0.0013595158234, -0.0144326156005, 0.0389384441078, -0.0427439995110, -0.0425068512559, -0.0656247958541, 0.0129140922800, 0.0160827580839, 0.0605095885694, -0.0301691275090, -0.0343467481434, -0.0341516286135, 0.0375760197639, 0.0539548881352, -0.0617065727711, -0.0357980951667, -0.0104653220624, 0.0462887063622, 0.0474853925407, 0.0259903334081, -0.0404824987054, 0.0332394875586, 0.0413162671030, -0.0379409417510, 0.0167364515364, 0.0445015653968, 0.0565159656107, 0.0119591066614, 0.0613407380879, -0.0652749910951, -0.0052241450176, 0.0259682442993, -0.0434406064451, -0.0228880103678, -0.0320199988782, -0.0520227029920, 0.0524237416685, 0.0154572268948, -0.0362175926566, 0.0657672137022, -0.0569705776870, -0.0628850311041, 0.0674468949437, 0.0244692936540, 0.0288994759321, 0.0508498586714, -0.0690775364637, 0.0499475486577, 0.0415439084172, -0.0552132241428, 0.0082068480551, 0.0404913574457, 0.0216705538332, 0.0144674116746, 0.0535131730139, 0.0044590719044, -0.0046068141237, -0.0159188676625, 0.0579390563071, -0.0256342142820, 0.0029442731757, 0.0088117728010, -0.0056981677189, 0.0287985634059, 0.0423217639327, -0.0381230525672, -0.0413406565785, -0.0027982674073, -0.0155734913424, -0.0062553151511, -0.0075090257451, 0.0070380680263, 0.0520928166807, -0.0482111126184, -0.0071012428962, -0.0205223597586, 0.0218283310533, 0.0085747884586, -0.0187190026045, -0.0310700107366, 0.0026185810566, 0.0545724406838, -0.0672620385885, -0.0313609838486, 0.0322337448597, -0.0068331221119, -0.0519209578633, -0.0403297133744, 0.0478437431157, 0.0175646636635, 0.0368871539831, 0.0218110587448, 0.0031177494675, 0.0134945530444, 0.0632580295205, 0.0304328408092, -0.0164339002222, 0.0449269227684, 0.0289525166154, 0.0411016233265, -0.0198218468577, -0.0416576862335, -0.0240002889186, -0.0180387552828, -0.0678585618734, 0.0472918115556, 0.0692341402173, -0.0529768727720, 0.0097648743540, 0.0471684224904, -0.0388315096498, -0.0295810345560, -0.0679707154632, -0.0325846672058, -0.0126215480268, -0.0159539896995, 0.0192441064864, 0.0174290519208, 0.0102128898725, -0.0066350786947, -0.0606454126537, 0.0684252753854, -0.0507361628115, 0.0041363690980, 0.0076796589419, 0.0502120442688, -0.0661805644631, -0.0256361477077, -0.0450574755669, -0.0595192499459, 0.0071261022240, 0.0271201077849, 0.0049209818244, 0.0277410298586, -0.0331851541996, -0.0432373322546, -0.0422355383635, 0.0330233350396, -0.0069988947362, 0.0240194480866, 0.0329711176455, -0.0501983314753, 0.0481748394668, 0.0555229708552, 0.0672340393066, 0.0572849102318, -0.0636009275913, -0.0141774173826, 0.0001134522900, 0.0553498268127, 0.0224391091615, 0.0218859203160, 0.0661624521017, -0.0277103781700, -0.0147989504039, -0.0647270604968, 0.0029244662728, -0.0289243478328, 0.0181657876819, -0.0465431399643, -0.0578167475760, 0.0063573131338, 0.0669981911778, -0.0652321875095, 0.0235329922289, 0.0560129173100, -0.0375609770417, 0.0313330218196, -0.0187858361751, 0.0045224437490, -0.0335578098893, -0.0113164596260, 0.0499142222106, 0.0307776648551, 0.0336457826197, -0.0010895304149, -0.0675938352942, 0.0603896304965, -0.0477709732950, -0.0288472659886, -0.0529053285718, 0.0044208876789, -0.0487214364111, 0.0672757178545, 0.0511831566691, 0.0666221156716, 0.0513739101589, 0.0399583876133, 0.0459314212203, -0.0467110313475, 0.0220150370151, 0.0030380852986, -0.0223857890815, 0.0690543875098, 0.0151318199933, -0.0592987835407, 0.0025186841376, -0.0196349807084, -0.0163788031787, -0.0160283185542, -0.0122915366665, -0.0100059183314, -0.0089135449380, 0.0270960144699, -0.0193639602512, 0.0000267520300, 0.0309195946902, 0.0033381932881, -0.0543235540390, -0.0124113503844, -0.0049279509112, 0.0375765748322, 0.0421386919916, 0.0397006757557, 0.0214997958392, -0.0531817674637, -0.0266308411956, 0.0470165237784, 0.0366906970739, 0.0063152634539, 0.0430450588465, -0.0389711447060, -0.0508750081062, 0.0291681420058, 0.0376174673438, 0.0482015497983, -0.0371189117432, 0.0197002571076, 0.0589054375887, -0.0096449283883, -0.0301085393876, 0.0538148805499, -0.0678310543299, 0.0005456196959, 0.0690691694617, 0.0360793992877, 0.0376608185470, -0.0542654395103, 0.0694376155734, -0.0608564242721, -0.0070765917189, -0.0620145089924, 0.0391230732203, 0.0046245334670, -0.0056514814496, -0.0332181602716, 0.0655429363251, 0.0272343177348, 0.0665626898408, 0.0063562793657, -0.0119986403733, -0.0332616008818, -0.0201162695885, -0.0302076116204, -0.0450263954699, -0.0189940072596, 0.0305592641234, -0.0600199773908, 0.0298130661249, 0.0363356024027, 0.0368056409061, -0.0131824240088, 0.0143471835181, 0.0383702144027, 0.0141598852351, -0.0475672297180, -0.0038256989792, -0.0331859663129, 0.0383584536612, -0.0416815131903, -0.0613693483174, -0.0057109873742, -0.0275701973587, -0.0342742130160, -0.0492563098669, -0.0038751179818, 0.0346390679479, -0.0373800806701, -0.0214116796851, 0.0032414391171, -0.0142729962245, -0.0329830497503, 0.0665752366185, -0.0098610706627, 0.0378275960684, -0.0058712163009, 0.0372529588640, 0.0082752974704, 0.0464872457087, 0.0448847226799, -0.0450916886330, 0.0242645051330, -0.0506946407259, 0.0657742545009, 0.0123034045100, 0.0032641927246, 0.0142028164119, 0.0322809666395, -0.0164870843291, 0.0360063575208, -0.0506035052240, -0.0556841194630, 0.0003360433911, 0.0581832602620, -0.0078621432185, 0.0390589535236, -0.0198122821748, 0.0170536395162, -0.0455659069121, 0.0072127822787, -0.0228960942477, -0.0688781663775, -0.0528416782618, 0.0459669120610, -0.0267769899219, -0.0331383273005, -0.0439719557762, 0.0280690137297, 0.0368435233831, 0.0527621656656, 0.0683077424765, -0.0255540180951, 0.0262680463493, 0.0456224158406, -0.0407694019377, 0.0093695679680, 0.0519577115774, -0.0190916657448, -0.0486061349511, 0.0558090172708, 0.0185098834336, -0.0539673604071, -0.0642278790474, 0.0190002955496, 0.0185400154442, -0.0211696084589, -0.0362240411341, -0.0013677418465, -0.0048243170604, -0.0018048051279, 0.0285277701914, -0.0554859749973, -0.0017460845411, 0.0040294597857, 0.0102562950924, -0.0101233432069, -0.0261067375541, -0.0069861817174, -0.0574924014509, 0.0196363478899, -0.0340279825032, -0.0233253352344, -0.0064352471381, 0.0204126220196, -0.0446731373668, -0.0552197620273, 0.0298258662224, -0.0147857926786, -0.0610841065645, -0.0274794660509, 0.0600799359381, 0.0163892824203, 0.0428237915039, -0.0033744114917, 0.0452746786177, -0.0192072968930, 0.0106068002060, -0.0042911376804, 0.0334644056857, -0.0267905425280, -0.0082528209314, -0.0359548777342, 0.0095982616767, -0.0486719422042, 0.0196686629206, 0.0434468537569, -0.0431085601449, 0.0508007146418, -0.0090228077024, 0.0443617627025, -0.0380004942417, 0.0257185697556, 0.0077556436881, 0.0594474971294, 0.0477531142533, 0.0033957364503, 0.0598083436489, -0.0315585918725, -0.0585525631905, 0.0062700523995, 0.0529413409531, 0.0666651055217, 0.0130068240687, 0.0033979963046, -0.0427937284112, 0.0477685742080, 0.0105137526989, -0.0010443916544, 0.0195445585996, -0.0222532972693, -0.0145214386284, 0.0533727966249, 0.0584671311080, 0.0243113730103, 0.0188607536256, 0.0134991295636, -0.0447885952890, -0.0110472161323, -0.0320273712277, -0.0339967086911, 0.0052046696655, -0.0028313412331, 0.0242201779038, -0.0378255136311, 0.0087008755654, 0.0151939168572, -0.0564111582935, -0.0672837346792, -0.0078722508624, -0.0524953268468, -0.0601124204695, -0.0248311515898, 0.0296334922314, 0.0237091146410, -0.0166727695614, -0.0315222889185, 0.0132242757827, 0.0566866546869, -0.0504773706198, -0.0517475716770, -0.0233787428588, -0.0529449917376, -0.0480629652739, 0.0245526265353, 0.0341547317803, -0.0003115911386, 0.0199337266386, -0.0360782071948, -0.0445188283920, 0.0503887608647, -0.0081599066034, 0.0468449033797, -0.0063081150874, 0.0169942937791, -0.0616478100419, -0.0438623726368, -0.0628317743540, -0.0660770460963, -0.0169964618981, 0.0322363302112, -0.0475642681122, 0.0116181084886, 0.0232862699777, -0.0513737760484, -0.0248796809465, -0.0540232136846, -0.0196956507862, 0.0633382722735, -0.0527462884784, 0.0280366223305, -0.0638392344117, 0.0216348692775, 0.0163188632578, 0.0083514628932, -0.0657283067703, 0.0520480647683, -0.0595585331321, 0.0502626821399, -0.0498681291938, -0.0655631124973, 0.0137054314837, -0.0520739816129, -0.0318091735244, -0.0631942823529, -0.0540881976485, -0.0191275291145, 0.0624779611826, 0.0622981786728, -0.0042655845173, 0.0323023162782, 0.0008611998637, 0.0515394210815, 0.0404600240290, -0.0560498125851, -0.0171841494739, -0.0233769249171, 0.0461885370314, -0.0310447849333, -0.0278532542288, -0.0641467422247, -0.0050908648409, 0.0253584161401, 0.0264963060617, -0.0031888177618, -0.0448719933629, -0.0079508116469, -0.0282302554697, -0.0482406243682, 0.0333523117006, 0.0426021255553, 0.0693013519049, -0.0116428770125, -0.0521714277565, 0.0419460609555, 0.0555712133646, 0.0340149551630, -0.0619890317321, -0.0564605481923, -0.0397501289845, 0.0265934392810, -0.0355252660811, 0.0028876096476, -0.0073461937718, -0.0485158488154, -0.0557135604322, 0.0234175790101, 0.0571169629693, 0.0114298351109, -0.0391327440739, 0.0599301867187, -0.0693593025208, 0.0463010556996, -0.0012324699201, 0.0591151975095, 0.0258455183357, 0.0495131276548, -0.0634469911456, -0.0571487508714, 0.0317582115531, -0.0534787178040, -0.0574640259147, -0.0353414453566, 0.0083962576464, -0.0240765865892, -0.0447744838893, -0.0336593464017, -0.0186444241554, 0.0125882560387, -0.0323565043509, 0.0112801399082, 0.0191682502627, 0.0277784634382, -0.0666419267654, 0.0646259784698, 0.0290991980582, 0.0087402267382, -0.0181232988834, 0.0174822770059, 0.0058968965895, -0.0562143698335, -0.0658059045672, 0.0226592086256, 0.0496404580772, -0.0534948892891, -0.0102856718004, 0.0663239210844, -0.0394813530147, -0.0257227830589, 0.0111568551511, -0.0405566021800, 0.0419950373471, 0.0061347829178, 0.0600029975176, -0.0389499180019, 0.0128160109743, -0.0459368899465, -0.0287322532386, 0.0266525577754, 0.0470520146191, 0.0413635894656, 0.0321305133402, -0.0199237018824, -0.0317156799138, 0.0084872683510, 0.0030254342128, 0.0373553261161, 0.0501208603382, 0.0688529834151, -0.0685895383358, 0.0233655720949, -0.0647693499923, 0.0667148903012, 0.0120343668386, 0.0067782271653, 0.0000792233186, -0.0130580887198, 0.0651441812515, 0.0273990072310, -0.0441237874329, -0.0376295708120, 0.0282268505543, 0.0428042747080, 0.0180387683213, 0.0589061379433, -0.0367757678032, -0.0421811193228, -0.0641991347075, -0.0280434656888, -0.0559823885560, -0.0298449080437, 0.0143453851342, 0.0107595901936, 0.0268696490675, 0.0195626858622, -0.0167249217629, -0.0449736677110, -0.0690236687660, -0.0467334315181, -0.0261833835393, 0.0163454823196, 0.0038941788953, 0.0284607689828, 0.0665220543742, -0.0008857806097, 0.0112285586074, -0.0656488016248, 0.0294223129749, 0.0455254241824, -0.0550882816315, 0.0318928249180, -0.0683571174741, -0.0516515523195, 0.0412877425551, 0.0018799733371, -0.0323477536440, 0.0055351848714, -0.0378215238452, 0.0337982624769, -0.0421394631267, 0.0118236895651, 0.0632921084762, 0.0144960042089, 0.0662090256810, -0.0498651079834, -0.0580548532307, -0.0196931678802, 0.0241713300347, -0.0526496395469, -0.0153527120128, -0.0486134998500, -0.0386124514043, 0.0069995182566, -0.0263352822512, -0.0645709484816, 0.0631062835455, -0.0124442083761, 0.0278079006821, -0.0575241185725, 0.0576754920185, -0.0669452697039, 0.0100095802918, 0.0250130984932, 0.0270989425480, 0.0461223945022, 0.0408722199500, 0.0258348789066, -0.0682559460402, -0.0612507797778, -0.0557645261288, -0.0528945326805, 0.0041597480886, -0.0408842079341, 0.0630646049976, 0.0145675074309, -0.0065655037761, 0.0128502156585, -0.0232590809464, 0.0229886211455, 0.0485345907509, -0.0071567171253, -0.0266327615827, 0.0598869174719, -0.0496284700930, -0.0396020114422, -0.0482653006911, -0.0581846535206, -0.0138301094994, 0.0492572970688, 0.0649135857821, 0.0361034050584, -0.0501288585365, 0.0058915647678, 0.0064435577951, 0.0638720914721, -0.0417770706117, -0.0093937776983, -0.0573523119092, -0.0537852495909, 0.0022758736741, -0.0041610542685, -0.0663060545921, -0.0134048871696, -0.0308805834502, 0.0427867658436, -0.0234061665833, 0.0417628921568, -0.0327411405742, 0.0594501756132, 0.0448513552547, 0.0208923798054, -0.0479225292802, -0.0059367329814, -0.0278505999595, -0.0120332939550, 0.0040361718275, 0.0153546342626, 0.0471207983792, 0.0413560867310, 0.0213388055563, 0.0117466868833, 0.0526004657149, 0.0464358888566, 0.0583173409104, -0.0329846926033, 0.0138953914866, 0.0091447867453, -0.0104808192700, -0.0339238196611, 0.0557903386652, 0.0080501595512, -0.0054619670846, -0.0181452762336, 0.0639149695635, -0.0123537303880, -0.0432841815054, 0.0424689762294, -0.0355823338032, 0.0435475185513, 0.0510475821793, -0.0697624906898, -0.0663913339376, -0.0142715433612, -0.0469871908426, -0.0653174445033, -0.0261435378343, -0.0348468311131, 0.0065542822704, -0.0224035903811, -0.0513974837959, 0.0602185353637, 0.0268037356436, 0.0207619648427, -0.0234967153519, 0.0174317862839, -0.0216464363039, -0.0356233231723, -0.0109011959285, -0.0128389867023, 0.0186012759805, -0.0223839376122, -0.0496519282460, 0.0149235278368, 0.0184949617833, -0.0143282441422, 0.0114694386721, 0.0413130857050, -0.0079690562561, -0.0290063638240, -0.0057957358658, 0.0696134865284, -0.0354772806168, -0.0080808019266, -0.0639364346862, 0.0329632088542, -0.0146058015525, 0.0329072587192, -0.0535759590566, 0.0694546774030, 0.0029903869145, -0.0345756709576, -0.0465521886945, 0.0470500588417, -0.0561495833099, -0.0214229598641, 0.0427899993956, -0.0523792430758, -0.0222456268966, -0.0339733436704, 0.0564114153385, 0.0612090379000, 0.0014572771033, 0.0295390933752, -0.0059684282169, -0.0072852438316, -0.0296056047082, 0.0593442209065, -0.0247018933296, 0.0581106916070, 0.0054936460219, 0.0242896638811, 0.0293252132833, -0.0066469502635, 0.0282633043826, -0.0259967651218, -0.0442693792284, 0.0458564385772, 0.0685856267810, -0.0183185804635, -0.0283903870732, 0.0399241298437, 0.0234003383666, 0.0091558238491, -0.0433887653053, -0.0408517643809, -0.0314115136862, 0.0197818949819, 0.0562151297927, 0.0359600931406, -0.0073473397642, -0.0595893152058, -0.0536638125777, 0.0545180924237, -0.0525167994201, -0.0560045689344, 0.0415854305029, 0.0115546099842, 0.0111448811367, 0.0286336801946, 0.0557607412338, 0.0305534023792, 0.0631223246455, 0.0578452609479, -0.0288648940623, 0.0008596862317, 0.0529741719365, -0.0357350371778, -0.0639449432492, -0.0263009555638, -0.0684148445725, 0.0115965036675, 0.0552760288119, 0.0502800717950, -0.0637536495924, 0.0666192099452, -0.0020453461912, 0.0562555603683, 0.0403527244925, 0.0581326633692, 0.0342201143503, -0.0402686819434, 0.0180189050734, 0.0149497352540, -0.0002338631020, -0.0511738657951, -0.0314500816166, 0.0168407671154, 0.0029913617764, 0.0147317582741, 0.0401616506279, 0.0464639924467, 0.0010293958476, 0.0332783125341, 0.0004864532675, 0.0374848768115, 0.0355260893703, -0.0071387682110, 0.0297048296779, -0.0338176451623, 0.0226402785629, 0.0366470292211, -0.0376047007740, 0.0360697247088, 0.0282383635640, -0.0533130988479, 0.0557365342975, -0.0649252682924, 0.0677048936486, 0.0475350804627, -0.0600625053048, -0.0111000956967, 0.0508696511388, -0.0115432636812, 0.0169128440320, -0.0357001088560, -0.0193222425878, -0.0404826737940, -0.0598332323134, -0.0029596306849, 0.0512811876833, 0.0664388462901, -0.0620855279267, -0.0301087275147, 0.0103623354807, 0.0150126563385, -0.0187484100461, -0.0065180854872, 0.0666288584471, -0.0586856789887, 0.0324281379580, -0.0120205534622, 0.0258379019797, 0.0633465498686, 0.0241619404405, -0.0639839172363, -0.0500381030142, 0.0495006218553, -0.0147004779428, -0.0424803346395, 0.0434926301241, 0.0057768006809, -0.0590128637850, -0.0140875754878, -0.0625095814466, 0.0512841306627, 0.0407783016562, -0.0453253388405, -0.0160028897226, 0.0333093330264, -0.0518638193607, -0.0645311176777, 0.0101812137291, 0.0150784086436, 0.0556938648224, -0.0125380046666, 0.0398367755115, 0.0599185451865, 0.0404998585582, -0.0204224456102, 0.0324505828321, -0.0149269010872, -0.0369545593858, 0.0082544516772, 0.0581102930009, -0.0303979553282, -0.0270387753844, -0.0074763633311, 0.0648973435163, -0.0363373234868, 0.0441891811788, -0.0521987043321, -0.0323937907815, 0.0023209536448, -0.0590711124241, 0.0569130107760, -0.0411227196455, 0.0175646990538, 0.0390547439456, -0.0319479927421, -0.0404166281223, 0.0068290890194, -0.0507495030761, 0.0531222373247, -0.0607981234789, -0.0609729923308, 0.0455216392875, -0.0692308172584, 0.0557503104210, -0.0276661887765, 0.0293617602438, -0.0246031172574, 0.0302839186043, -0.0351916924119, -0.0672264099121, 0.0620296634734, -0.0565086752176, -0.0230815783143, -0.0245461948216, -0.0299470741302, -0.0301897749305, -0.0542982071638, 0.0218321904540, 0.0617305822670, 0.0581378526986, -0.0170140191913, 0.0578288063407, 0.0432417206466, -0.0619460642338, 0.0635586231947, 0.0669676065445, -0.0495424419641, 0.0108382096514, -0.0310110505670, 0.0296934414655, 0.0120462113991, 0.0458683483303, -0.0576108098030, 0.0597538240254, -0.0494886040688, 0.0284180846065, -0.0167655814439, 0.0556356124580, -0.0644430816174, 0.0628498420119, -0.0435845293105, -0.0334701128304, 0.0238839387894, -0.0060495622456, 0.0576627142727, 0.0116424923763, 0.0083130253479, 0.0231986567378, -0.0471505522728, 0.0242276918143, 0.0531727708876, 0.0124915754423, -0.0308753568679, -0.0189609061927, -0.0466282106936, -0.0318063534796, -0.0221947524697, 0.0222257189453, 0.0521374717355, -0.0406457409263, -0.0424940213561, 0.0125822173432, -0.0578665882349, 0.0539821833372, 0.0503332093358, -0.0010625817813, 0.0544343926013, 0.0439316965640, -0.0052390582860, -0.0374623574317, 0.0308345872909, 0.0560809001327, 0.0663594007492, -0.0621036775410, -0.0571768730879, 0.0671167150140, 0.0344275683165, 0.0168048013002, 0.0622360929847, 0.0554942823946, 0.0014890055172, 0.0172276608646, -0.0468141511083, 0.0131411924958, 0.0092459451407, 0.0546660646796, -0.0266481079161, -0.0608920641243, -0.0693054273725, -0.0456335581839, 0.0648059695959, 0.0507808960974, -0.0622315406799, 0.0093914149329, 0.0493164658546, 0.0124228708446, 0.0424891635776, 0.0024984334596, 0.0597432553768, -0.0526635013521, 0.0248348731548, 0.0119857704267, 0.0125961508602, -0.0290745310485, -0.0429961308837, -0.0340647101402, 0.0328401029110, -0.0061431857757, -0.0014601546573, 0.0064566214569, -0.0006340010441, 0.0495041050017, 0.0330597795546, -0.0223108809441, -0.0204694829881, 0.0685840770602, 0.0048864437267, 0.0459393411875, 0.0324678309262, 0.0508079901338, -0.0320715419948, 0.0329506807029, -0.0632615089417, -0.0059988736175, 0.0236141365021, 0.0413077957928, 0.0384239181876, 0.0415253378451, 0.0434935614467, 0.0696495175362, 0.0017885239795, -0.0428358092904, 0.0633800178766, 0.0373624451458, 0.0523335076869, -0.0182436686009, -0.0348063856363, 0.0543344020844, -0.0375866033137, 0.0679419711232, 0.0008386384579, -0.0502023957670, -0.0241879392415, -0.0380465351045, -0.0543878115714, -0.0606478713453, 0.0696230530739, 0.0221858154982, -0.0154595160857, 0.0054886792786, 0.0254218075424, -0.0256999712437, -0.0272615794092, -0.0245149750262, 0.0158137045801, -0.0488355122507, 0.0475296750665, 0.0124615421519, -0.0114139607176, -0.0065704090521, -0.0238192155957, -0.0275499876589, 0.0505147986114, 0.0417114682496, -0.0002574083337, 0.0236918032169, 0.0680256634951, 0.0368119888008, 0.0359762422740, -0.0062781781889, -0.0535751543939, 0.0570044927299, 0.0045997519046, -0.0344173759222, 0.0210820306093, -0.0483259111643, 0.0445435866714, 0.0302701406181, 0.0298482384533, 0.0155639005825, 0.0492442622781, -0.0052083004266, 0.0670182257891, 0.0537404902279, -0.0290297996253, -0.0025891752448, 0.0528832636774, 0.0631683766842, -0.0573473572731, 0.0489257015288, 0.0182117428631, -0.0183798503131, 0.0387140698731, 0.0529653243721, 0.0263504479080, -0.0242116656154, 0.0061509399675, -0.0479599945247, 0.0317108146846, -0.0511101223528, 0.0252489633858, -0.0528205111623, -0.0185334403068, 0.0122303357348, -0.0123377600685, 0.0145949423313, -0.0556479506195, -0.0608144775033, 0.0151617648080, 0.0642802417278, 0.0326296761632, 0.0110161462799, -0.0026512241457, -0.0478212721646, -0.0357164032757, 0.0347793698311, 0.0474949851632, 0.0134129766375, 0.0229972861707, -0.0094022583216, -0.0444373860955, -0.0430720783770, -0.0341006666422, 0.0414522141218, -0.0343221202493, 0.0427256189287, -0.0512745454907, -0.0629939734936, 0.0677226856351, -0.0370266735554, -0.0232846196741, 0.0419114343822, -0.0284779202193, -0.0085926456377, 0.0228032749146, 0.0384534634650, 0.0565542094409, -0.0292938537896, 0.0471331290901, -0.0139230964705, -0.0136317061260, -0.0619064867496, 0.0607335828245, -0.0577503181994, -0.0295633524656, -0.0457743108273, -0.0143175804988, -0.0128566613421, -0.0650384873152, 0.0437637455761, 0.0463844276965, 0.0183779560030, 0.0243148747832, 0.0305725000799, -0.0286654848605, 0.0332922860980, -0.0435405559838, -0.0561699010432, 0.0237390287220, 0.0072936462238, -0.0635278448462, -0.0201289262623, 0.0626432970166, 0.0663906559348, -0.0361391901970, -0.0039953538217, 0.0409823954105, -0.0272027328610, -0.0513063073158, 0.0001896201866, -0.0477880984545, 0.0472321845591, -0.0213570687920, 0.0633570328355, 0.0592275820673, 0.0086364764720, 0.0255152508616, 0.0199777111411, 0.0442652590573, 0.0537938177586, 0.0284564923495, -0.0696068555117, 0.0150332711637, -0.0659773498774, -0.0283852275461, 0.0644592046738, 0.0036837935913, -0.0426953136921, 0.0696587637067, 0.0440028347075, 0.0389473661780, -0.0670508295298, -0.0605948381126, -0.0663409829140, 0.0005990787758, -0.0209534689784, -0.0045051281340, 0.0146729536355, -0.0045028859749, -0.0484688319266, 0.0634414255619, -0.0495638474822, 0.0171541478485, 0.0472484603524, 0.0039219879545, -0.0075396015309, 0.0485461242497, -0.0469079986215, -0.0654113292694, 0.0610526427627, 0.0586397573352, -0.0050153695047, 0.0240365415812, -0.0387936308980, -0.0033753514290, -0.0178358033299, -0.0111677190289, -0.0301557984203, 0.0518175959587, -0.0210910718888, -0.0039438367821, -0.0122854337096, 0.0446193329990, 0.0066983439028, 0.0399904809892, -0.0208397749811, -0.0203679297119, -0.0132909696549, -0.0149731431156, 0.0345706790686, 0.0017617498524, 0.0469075068831, -0.0635475367308, 0.0495935641229, -0.0178091935813, 0.0196026619524, -0.0266121979803, -0.0375044792891, -0.0090721761808, -0.0576877631247, 0.0085715968162, 0.0544976554811, 0.0244328398257, -0.0345735475421, -0.0673297867179, 0.0228303745389, 0.0394174531102, 0.0083302017301, -0.0578158386052, 0.0688293725252, -0.0064628249966, 0.0656499341130, -0.0484682396054, -0.0087938616052, -0.0093269180506, 0.0349171943963, -0.0010651057819, 0.0135809723288, 0.0140106296167, 0.0321535505354, -0.0454791449010, 0.0479937307537, 0.0065938262269, -0.0460598096251, 0.0107739241794, -0.0470792613924, 0.0447964109480, -0.0288366414607, 0.0151584707201, 0.0505625195801, 0.0300859659910, -0.0664788708091, -0.0191820748150, 0.0075931693427, 0.0416172929108, 0.0657095909119, -0.0222797449678, 0.0607210062444, -0.0619316659868, -0.0451669096947, 0.0626704320312, 0.0203899759799, -0.0053350739181, -0.0377904027700, -0.0286758486181, 0.0525934249163, -0.0411567203701, -0.0497239045799, 0.0462073348463, 0.0358328595757, -0.0588177070022, -0.0332738719881, -0.0149121405557, -0.0518889799714, -0.0400920622051, 0.0422917641699, -0.0530453585088, -0.0550090633333, 0.0332678481936, -0.0516414754093, -0.0462847165763, -0.0600605532527, 0.0222679078579, 0.0378814265132, -0.0178159549832, -0.0095202643424, -0.0109289987013, 0.0258235577494, -0.0077628660947, 0.0529488176107, 0.0664286762476, -0.0231980010867, -0.0390915945172, -0.0152594707906, 0.0624062120914, -0.0333574675024, 0.0262148864567, -0.0119329523295, 0.0137439928949, -0.0401032157242, 0.0446188487113, 0.0231942087412, 0.0235760677606, -0.0380192287266, 0.0455590970814, -0.0659150630236, -0.0073981555179, -0.0625320822001, -0.0262894276530, -0.0662661269307, 0.0397598221898, -0.0360089242458, -0.0379901938140, -0.0595076233149, -0.0620910152793, -0.0415616929531, -0.0485573075712, -0.0451404042542, 0.0265645924956, 0.0450675040483, 0.0624225400388, 0.0576359070837, 0.0406429097056, 0.0573531053960, -0.0421933941543, -0.0328788831830, -0.0132049992681, -0.0641183704138, 0.0566797256470, 0.0199644062668, 0.0401258282363, -0.0286592077464, 0.0483504235744, 0.0658074468374, 0.0436143465340, -0.0548919998109, -0.0616118758917, -0.0377896316350, -0.0408992841840, -0.0416594892740, -0.0212975814939, 0.0687795877457, -0.0164706818759, -0.0631305351853, 0.0223756749183, 0.0375593788922, -0.0611949972808, 0.0417402014136, 0.0611173287034, 0.0325794741511, -0.0656086280942, -0.0015383418649, 0.0275194700807, -0.0152950529009, 0.0280652865767, -0.0449732840061, 0.0091658122838, -0.0338032394648, 0.0245910268277, -0.0192150231451, -0.0303996596485, 0.0680577829480, -0.0659512579441, 0.0432111620903, -0.0652532503009, 0.0087513830513, 0.0018307729624, -0.0111670680344, 0.0164925195277, 0.0536693818867, 0.0342091135681, 0.0106336567551, 0.0181715283543, -0.0321894213557, 0.0071318899281, 0.0612173490226, -0.0015389750479, -0.0067223091610, -0.0151002351195, -0.0640125647187, -0.0668475031853, 0.0142006473616, -0.0683611780405, -0.0030713519081, -0.0666931495070, -0.0124535998330, -0.0116668548435, 0.0172839220613, 0.0513062663376, 0.0575728230178, 0.0113112255931, 0.0263364836574, 0.0116219427437, -0.0222957395017, -0.0684752017260, -0.0422324985266, 0.0064078178257, 0.0052132755518, 0.0263835266232, 0.0462271831930, -0.0023498462979, 0.0469022206962, 0.0208068825305, 0.0024284648243, -0.0385942980647, -0.0495141632855, -0.0557153001428, -0.0278001055121, -0.0605306923389, -0.0403096303344, -0.0328607670963, 0.0095855379477, -0.0646319910884, 0.0376149676740, -0.0687853991985, 0.0125693250448, 0.0546464882791, 0.0663828551769, 0.0352252423763, -0.0556325167418, -0.0696886852384, 0.0677576884627, 0.0276745911688, 0.0281126797199, 0.0399695038795, -0.0565899424255, -0.0038898042403, 0.0463381186128, -0.0621383152902, -0.0692938342690, 0.0437843054533, -0.0362337976694, 0.0617407374084, -0.0680433660746, -0.0026063295081, -0.0612459592521, -0.0059193526395, -0.0594659261405, -0.0293279979378, -0.0053810435347, 0.0640238970518, 0.0059317820705, 0.0500836558640, 0.0539180003107, -0.0022818495054, 0.0157016925514, -0.0367716141045, 0.0019573692698, 0.0355234481394, 0.0506628118455, 0.0565560869873, -0.0205561984330, -0.0041844099760, -0.0298809371889, 0.0439002439380, -0.0069900811650, 0.0320389382541, 0.0176414493471, 0.0616521984339, 0.0662770047784, 0.0411566831172, 0.0234486851841, -0.0372694097459, 0.0210126563907, 0.0194205138832, 0.0588513761759, 0.0651733055711, 0.0639937445521, -0.0163277667016, -0.0590323135257, -0.0622505545616, 0.0426021032035, 0.0160284042358, -0.0268681943417, 0.0148803656921, 0.0604287497699, 0.0526224300265, -0.0336870923638, 0.0398919843137, 0.0117027778178, 0.0697134211659, -0.0611878745258, -0.0454044453800, -0.0595741383731, -0.0099706007168, -0.0012018235866, 0.0245384406298, 0.0558559894562, -0.0181564148515, 0.0379498526454, 0.0595669560134, 0.0688719525933, 0.0602820403874, 0.0641074925661, 0.0656184926629, 0.0384840816259, -0.0379895083606, 0.0394357405603, 0.0253718402237, 0.0200490299612, -0.0677705928683, -0.0525253489614, 0.0309881139547, -0.0094571430236, 0.0536942258477, -0.0004301409062, -0.0272306445986, 0.0637668892741, 0.0265141893178, 0.0334497764707, -0.0663789212704, 0.0248756427318, -0.0147370742634, 0.0285562761128, 0.0303172618151, 0.0388094112277, 0.0294864531606, 0.0349464006722, 0.0412710569799, 0.0672454908490, 0.0308232549578, 0.0317452587187, 0.0528510361910, 0.0492609888315, -0.0545197166502, 0.0073565822095, -0.0379780456424, 0.0223640762269, 0.0487731061876, -0.0214375816286, 0.0106777688488, -0.0576130263507, -0.0377009510994, 0.0492518506944, -0.0262439679354, 0.0069670127705, 0.0164409093559, 0.0045970808715, 0.0037208120339, 0.0049919150770, 0.0498730838299, 0.0333732143044, 0.0534641072154, 0.0403198301792, 0.0549418926239, 0.0447026938200, 0.0258934032172, -0.0236154366285, 0.0504995919764, -0.0206116978079, 0.0635292604566, 0.0252914372832, 0.0152306882665, -0.0267410222441, 0.0682343021035, 0.0638083666563, -0.0428837202489, 0.0221719015390, 0.0384987257421, 0.0557311438024, 0.0255124662071, 0.0649827197194, -0.0486870631576, 0.0250728596002, -0.0159809682518, -0.0406461656094, 0.0242638047785, -0.0429227091372, 0.0270374678075, -0.0037386151962, -0.0558892674744, -0.0316939726472, 0.0323454327881, 0.0184410829097, -0.0146672921255, -0.0686845183372, 0.0179989542812, 0.0251984763891, -0.0373506955802, -0.0161610003561, 0.0160726066679, -0.0350869148970, 0.0133595084772, -0.0506422929466, 0.0318798460066, -0.0405459292233, 0.0475616231561, -0.0581682585180, -0.0052712406032, -0.0406677201390, 0.0175697393715, -0.0086636245251, 0.0265487767756, -0.0206663440913, -0.0569624044001, 0.0004494005407, 0.0359989516437, 0.0101447207853, 0.0053643663414, -0.0087225874886, 0.0342152342200, 0.0064273513854, 0.0464597381651, 0.0351375639439, -0.0454349145293, -0.0044951802120, -0.0317854806781, 0.0301097016782, 0.0181499030441, 0.0421238504350, -0.0102390712127, -0.0521487295628, 0.0052316547371, -0.0038297385909, -0.0059162895195, 0.0006740133394, -0.0475161820650, 0.0453564003110, 0.0494526438415, 0.0213206727058, 0.0123965889215, -0.0281879361719, 0.0620441325009, -0.0130170295015, 0.0285633038729, -0.0022937946487, -0.0053016217425, -0.0323682688177, 0.0684991329908, -0.0030026040040, 0.0597686804831, -0.0150761567056, 0.0490569658577, 0.0378378964961, -0.0056161531247, -0.0023473841138, 0.0077221221291, -0.0493870452046, -0.0362837612629, -0.0046309824102, -0.0441940315068, -0.0690445303917, -0.0543243102729, -0.0461320616305, -0.0311811026186, -0.0246730949730, -0.0440978445113, -0.0265362821519, -0.0268755964935, -0.0416277833283, 0.0635038688779, 0.0483698435128, -0.0190613083541, -0.0111253103241, 0.0308178551495, -0.0185839738697, -0.0554444007576, 0.0091136749834, 0.0641008168459, -0.0033828041051, 0.0488663837314, -0.0136407185346, 0.0551171898842, -0.0133054116741, -0.0629208981991, -0.0672298818827, 0.0390066392720, 0.0033855945803, 0.0242789667100, 0.0000202512238, 0.0259401239455, -0.0479452013969, -0.0082291364670, 0.0527998879552, -0.0223576575518, -0.0050436207093, -0.0061752316542, -0.0611782260239, 0.0487691015005, -0.0235178023577, -0.0010357613210, 0.0325169824064, -0.0329223051667, 0.0026477952488, 0.0475720390677, 0.0524912178516, 0.0348125174642, 0.0059752855450, -0.0669579654932, 0.0458107143641, 0.0687213465571, -0.0369255356491, 0.0467321611941, 0.0476803258061, 0.0400993973017, 0.0358719527721, -0.0212966129184, 0.0125323748216, 0.0657944530249, -0.0521539039910, 0.0192326288670, 0.0556402206421, 0.0672955140471, 0.0457655638456, -0.0610853619874, 0.0654474422336, -0.0127648925409, 0.0004852046259, -0.0492693819106, -0.0256962701678, -0.0568595193326, 0.0195599161088, 0.0272991321981, 0.0146957067773, 0.0057786288671, -0.0417649373412, -0.0436359383166, 0.0373126491904, 0.0483089871705, 0.0224828049541, 0.0173240918666, -0.0550698041916, -0.0233151540160, 0.0212957467884, -0.0020989130717, 0.0343036539853, 0.0671126991510, -0.0438356474042, 0.0373374409974, -0.0197732895613, 0.0288262460381, 0.0517451651394, 0.0671731755137, -0.0573499053717, -0.0164135936648, -0.0265052840114, 0.0270138159394, -0.0620181746781, 0.0270663965493, -0.0572839044034, -0.0443443879485, -0.0629417523742, -0.0017377564218, -0.0440089814365, -0.0602880567312, 0.0390428639948, 0.0590738579631, -0.0061398604885, 0.0576804466546, 0.0279108826071, 0.0354428291321, -0.0504009686410, 0.0237323995680, 0.0177769251168, -0.0171613413841, 0.0125603564084, 0.0033924339805, -0.0486753508449, -0.0501559302211, -0.0451752208173, -0.0037452767137, 0.0324610695243, 0.0123624680564, -0.0041913785972, -0.0369205959141, -0.0558108799160, 0.0575344152749, -0.0675138756633, -0.0483616888523, -0.0549494326115, -0.0155962733552, -0.0314716324210, 0.0568084530532, -0.0414914824069, -0.0211715158075, 0.0587880834937, -0.0576971434057, -0.0120385568589, 0.0209604073316, 0.0098626455292, 0.0610280632973, 0.0660071521997, -0.0455007068813, 0.0447543375194, 0.0270589403808, 0.0181772764772, -0.0695653036237, 0.0048247892410, -0.0168170966208, 0.0197198931128, -0.0622039325535, 0.0491497665644, -0.0007122165989, 0.0208424553275, 0.0009849995840, 0.0635075196624, 0.0288183763623, 0.0321681573987, -0.0242750830948, 0.0224103890359, -0.0662906989455, -0.0215816367418, 0.0514223016798, 0.0013968236744, 0.0194793120027, -0.0652635022998, 0.0287228412926, -0.0429395623505, -0.0515063330531, -0.0306520946324, 0.0327223911881, -0.0116607928649, 0.0526630878448, -0.0362126305699, 0.0599272549152, 0.0372282266617, 0.0438871532679, 0.0424473024905, -0.0297635290772, 0.0274959299713, -0.0550433956087, 0.0611191056669, 0.0077876020223, 0.0315301306546, 0.0642291903496, 0.0651923045516, 0.0505567789078, -0.0355950966477, 0.0580582953990, 0.0275342930108, 0.0686890035868, -0.0012564200442, 0.0135122602805, 0.0276203770190, 0.0364490337670, -0.0691927224398, -0.0357314310968, 0.0026698103175, 0.0198749098927, 0.0613601095974, 0.0478449836373, 0.0257247295231, -0.0212835688144, -0.0512332469225, 0.0063848812133, -0.0210104174912, -0.0084020895883, 0.0067517030984, -0.0171148721129, 0.0523803122342, -0.0140964295715, 0.0101671433076, -0.0539780110121, 0.0352212674916, 0.0071696494706, -0.0468563437462, 0.0103421285748, 0.0000597613071, -0.0165220219642, 0.0297901164740, -0.0036488047335, 0.0246979687363, -0.0343877710402, -0.0657872185111, 0.0479840971529, 0.0204295553267, 0.0662887170911, 0.0209604352713, 0.0110905161127, 0.0591818578541, -0.0598114468157, -0.0172357112169, -0.0289497599006, -0.0391327962279, 0.0551046952605, 0.0455585047603, -0.0009834254161, 0.0033681555651, 0.0295120235533, -0.0469588786364, -0.0643082261086, 0.0271757263690, -0.0510639883578, -0.0004703777086, 0.0604946985841, 0.0123794944957, 0.0488186888397, 0.0670945271850, -0.0517262369394, -0.0563073195517, -0.0001715211838, -0.0411246269941, 0.0672612115741, 0.0490585602820, 0.0253427252173, -0.0102081140503, -0.0037517773453, 0.0167439021170, -0.0281225536019, 0.0578869171441, -0.0569170266390, -0.0199289340526, 0.0234458055347, -0.0053096776828, -0.0159425493330, -0.0390339195728, -0.0657215043902, -0.0451232306659, 0.0547049082816, 0.0572025068104, -0.0045075514354, -0.0100987451151, 0.0546207688749, 0.0286198090762, -0.0125632015988, -0.0520110838115, 0.0315908081830, 0.0008647023351, -0.0057941060513, 0.0109787387773, -0.0277244653553, 0.0391464866698, -0.0686303302646, -0.0439648814499, -0.0623145326972, 0.0639299601316, 0.0577054992318, 0.0026326125953, -0.0534759499133, 0.0140361608937, -0.0531613156199, 0.0240826644003, 0.0595798976719, -0.0103497505188, 0.0115626174957, 0.0488816499710, 0.0480062551796, -0.0524338111281, 0.0033295003232, 0.0518557801843, 0.0222093183547, -0.0328163951635, 0.0518760047853, 0.0173513833433, 0.0066890767775, 0.0673050209880, 0.0660481750965, 0.0115412035957, 0.0067768073641, -0.0046466891654, -0.0442164838314, -0.0534318648279, -0.0350589789450, 0.0587362125516, 0.0184676516801, -0.0057014534250, -0.0692451372743, -0.0538836345077, -0.0604592859745, -0.0051133525558, -0.0084914527833, -0.0686580985785, 0.0388012304902, 0.0103547973558, -0.0192430745810, 0.0432315096259, 0.0222993548959, 0.0557023659348, 0.0338650643826, 0.0468930117786, 0.0672258138657, -0.0591967254877, -0.0092766955495, -0.0286504179239, 0.0430753491819, -0.0572861209512, -0.0380508825183, -0.0192642714828, -0.0540402457118, -0.0325227007270, 0.0204098727554, 0.0194937046617, -0.0461929328740, -0.0235455203801, 0.0364736802876, 0.0459793992341, -0.0025977385230, -0.0164453461766, -0.0079517764971, 0.0253926757723, -0.0674047470093, 0.0168463345617, 0.0447319187224, -0.0611295364797, -0.0179868955165, -0.0348420217633, -0.0640304759145, -0.0294980313629, 0.0575031712651, 0.0122189177200, 0.0053456588648, 0.0307715330273, -0.0419981330633, 0.0643166527152, -0.0048913815990, -0.0433593504131, -0.0330082550645, 0.0470524616539, -0.0382454805076, 0.0409748815000, -0.0287265554070, 0.0601558536291, 0.0657243058085, 0.0532462298870, 0.0656698495150, -0.0420642718673, -0.0547030419111, 0.0310872644186, 0.0480135455728, -0.0541043281555, 0.0453286506236, -0.0352718383074, 0.0446244589984, -0.0529169291258, -0.0359019786119, -0.0550807490945, 0.0527950227261, 0.0632876381278, 0.0173362400383, 0.0290617961437, -0.0675265938044, 0.0613043457270, -0.0568926334381, 0.0689216852188, 0.0582882165909, -0.0344116054475, 0.0061249854043, 0.0355583094060, -0.0316231250763, 0.0650615468621, 0.0107014356181, -0.0167970973998, -0.0378792472184, 0.0249909441918, -0.0386865176260, -0.0308076795191, -0.0261146761477, 0.0643738359213, 0.0041337953880, 0.0674437582493, -0.0589811578393, 0.0485743768513, -0.0107589922845, -0.0550532639027, -0.0287769492716, -0.0329803861678, -0.0321787744761, 0.0096120079979, -0.0508807376027, 0.0593923069537, 0.0671636685729, 0.0297766067088, -0.0088780792430, -0.0232561826706, -0.0591045655310, 0.0529233142734, 0.0270180441439, 0.0071605364792, -0.0232719201595, -0.0003678384819, -0.0605864003301, 0.0204460658133, 0.0366861522198, -0.0641421601176, 0.0067800260149, 0.0304585415870, -0.0442067906260, 0.0374439023435, 0.0153972124681, 0.0632814615965, -0.0663669556379, 0.0045796385966, 0.0196516253054, 0.0258114375174, 0.0521889775991, -0.0245465151966, -0.0649515092373, 0.0331877209246, 0.0476072020829, 0.0043605011888, 0.0643432587385, 0.0662178993225, -0.0679342597723, 0.0122845228761, -0.0307439193130, -0.0583597198129, 0.0597763136029, 0.0267031323165, 0.0347853712738, -0.0309584047645, -0.0416760332882, 0.0259275920689, 0.0633446946740, 0.0506573878229, -0.0575051605701, 0.0173531845212, -0.0376224815845, 0.0473681315780, -0.0303631927818, 0.0413518548012, -0.0509156547487, 0.0156734567136, -0.0210397280753, 0.0204124972224, 0.0420803576708, -0.0021135474090, -0.0601295270026, 0.0672225952148, -0.0009460975416, 0.0121742133051, -0.0416199229658, -0.0159015953541, -0.0380954593420, 0.0057230936363, -0.0191971473396, -0.0254101622850, -0.0500021874905, -0.0469536483288, 0.0681606456637, -0.0039189620875, 0.0661843121052, 0.0384424515069, -0.0003196647740, 0.0351172015071, -0.0658701211214, 0.0008681171457, -0.0595169737935, 0.0142109123990, -0.0063771684654, -0.0032576017547, -0.0574739202857, -0.0619710572064, -0.0505726225674, -0.0356977097690, -0.0553319416940, 0.0669132396579, 0.0173790771514, 0.0400791317225, -0.0277838259935, -0.0389695651829, 0.0521412715316, 0.0154923442751, 0.0079432884231, -0.0211978796870, 0.0696856677532, -0.0684644803405, 0.0574382506311, -0.0586795099080, -0.0232685394585, 0.0060793589801, 0.0180275067687, 0.0110379680991, -0.0062151462771, -0.0330090858042, -0.0477541349828, -0.0564224980772, -0.0065378835425, 0.0216387771070, -0.0228323619813, -0.0008379107458, 0.0257227569818, -0.0100012775511, 0.0459121130407, 0.0674799531698, -0.0589249506593, 0.0312693007290, 0.0378364659846, 0.0492792651057, 0.0377843976021, 0.0157860144973, 0.0581494532526, -0.0138768609613, 0.0395701341331, 0.0532027333975, 0.0134455449879, -0.0362267419696, -0.0137823866680, -0.0579203404486, 0.0680607482791, -0.0629554241896, 0.0312220267951, 0.0574282780290, -0.0563524886966, -0.0516412518919, 0.0689753741026, 0.0634567216039, 0.0149963283911, 0.0011846013367, -0.0028895887081, -0.0392291359603, -0.0323178321123, 0.0661519691348, 0.0471602305770, -0.0364775396883, 0.0571660473943, -0.0230984818190, -0.0672224760056, -0.0234473887831, 0.0650122836232, 0.0424106009305, -0.0617446266115, -0.0503921657801, 0.0091295549646, -0.0429978445172, -0.0173851549625, 0.0081776129082, 0.0530005730689, 0.0184834431857, -0.0197076667100, -0.0608724802732, 0.0335052981973, 0.0395996235311, -0.0064323106781, 0.0434674397111, -0.0363330692053, -0.0100198937580, -0.0655170977116, -0.0694492906332, -0.0523677952588, -0.0590712726116, -0.0500293299556, -0.0064510279335, -0.0022274544463, -0.0079231476411, -0.0234656464309, 0.0428896844387, -0.0385355204344, 0.0569738224149, -0.0087006203830, -0.0090259378776, 0.0090246228501, -0.0285687521100, -0.0613707788289, 0.0184701029211, -0.0637080520391, 0.0111575303599, 0.0418163910508, 0.0453423336148, -0.0203544981778, -0.0600666590035, 0.0621215850115, 0.0548369772732, 0.0360476300120, -0.0087851770222, 0.0019947346300, 0.0084643159062, -0.0513054355979, 0.0562378205359, 0.0373631194234, 0.0181345175952, 0.0556590892375, -0.0493800193071, -0.0496606193483, -0.0373379699886, 0.0627921894193, 0.0255753360689, 0.0644549578428, 0.0571339353919, -0.0121493143961, -0.0124160749838, 0.0682985186577, 0.0500665120780, 0.0115336999297, 0.0230534002185, -0.0034546225797, 0.0000488367077, -0.0038567674346, -0.0608971267939, -0.0181339681149, 0.0674434602261, -0.0130482874811, -0.0083312056959, 0.0318013578653, 0.0625318363309, -0.0448791012168, -0.0553380362689, 0.0351187251508, 0.0261168628931, 0.0181228239089, -0.0097333118320, -0.0054570022039, 0.0232159160078, 0.0691458806396, 0.0521463789046, -0.0086135156453, 0.0512512698770, -0.0100033888593, -0.0403544120491, 0.0639523193240, -0.0116740716621, -0.0671110525727, 0.0072960578837, -0.0089823231101, -0.0361564196646, 0.0093951364979, -0.0441723950207, 0.0555572509766, -0.0458390377462, 0.0416680984199, -0.0241102017462, 0.0152082042769, -0.0609720647335, -0.0145446946844, 0.0093489978462, 0.0256125871092, -0.0493095442653, -0.0160166583955, 0.0453958027065, 0.0493768863380, -0.0072346539237, -0.0443169884384, -0.0335328727961, 0.0245070494711, 0.0093697933480, 0.0691543817520, 0.0020530489273, 0.0675178542733, 0.0685853213072, 0.0003925591882, 0.0238938257098, -0.0468030981719, -0.0553847998381, 0.0543365031481, 0.0507742129266, -0.0390253923833, 0.0237107891589, 0.0126345083117, 0.0610598847270, -0.0315389372408, -0.0336693450809, -0.0268597975373, 0.0330201536417, 0.0602891333401, 0.0541393831372, 0.0341861620545, 0.0353999249637, -0.0318232774734, 0.0575911626220, -0.0409292504191, -0.0032188002951, 0.0050327042118, 0.0495855510235, -0.0111620528623, -0.0390281751752, -0.0643126741052, 0.0421753190458, 0.0530116222799, -0.0641872286797, 0.0146001270041, -0.0197211932391, -0.0582524165511, -0.0682456865907, 0.0652813911438, 0.0076738675125, -0.0274829827249, -0.0569557547569, 0.0242487173527, 0.0660875886679, -0.0063238455914, -0.0046903309412, -0.0682875066996, 0.0671162903309, -0.0614397525787, -0.0026557708625, 0.0432051941752, -0.0447517372668, -0.0219892356545, 0.0093713346869, -0.0574067011476, 0.0144674498588, 0.0536645315588, -0.0428312756121, -0.0318831503391, -0.0689786002040, 0.0286466423422, 0.0388418398798, 0.0133498106152, 0.0370363555849, 0.0529929511249, -0.0340545736253, 0.0284148361534, 0.0277699474245, 0.0595934763551, 0.0220196917653, -0.0175881106406, -0.0464428327978, 0.0296629387885, 0.0022539505735, -0.0203696452081, -0.0640911832452, 0.0325173772871, 0.0207504872233, 0.0085292505100, 0.0577971190214, -0.0643018782139, -0.0520241186023, -0.0451085194945, 0.0562160052359, 0.0314158052206, -0.0595423504710, 0.0167651232332, -0.0291882194579, -0.0233978219330, -0.0417870655656, 0.0680224597454, 0.0486488752067, -0.0294821653515, -0.0679646581411, 0.0658989921212, 0.0437211953104, 0.0458734184504, -0.0430011525750, -0.0388764701784, -0.0599227473140, -0.0498294420540, 0.0371834337711, 0.0111746359617, 0.0323302857578, 0.0015773740597, 0.0179977919906, 0.0011372857261, 0.0235516354442, -0.0678965672851, 0.0146752893925, -0.0382681414485, 0.0333878360689, 0.0674144923687, -0.0115131037310, 0.0136165469885, 0.0126739256084, 0.0538166724145, -0.0068703768775, -0.0662422254682, -0.0264685116708, 0.0240504965186, 0.0279298759997, 0.0026318687014, -0.0355263426900, 0.0357850492001, -0.0532574951649, 0.0462473630905, -0.0119060883299, -0.0638147294521, -0.0029182266444, 0.0267866756767, -0.0617024488747, 0.0379037223756, -0.0318431854248, -0.0610808134079, -0.0385242588818, -0.0583744049072, 0.0661285594106, 0.0343546085060, -0.0397669188678, 0.0433612763882, 0.0120004303753, -0.0452545881271, 0.0462047867477, -0.0569305196404, 0.0433490984142, 0.0124958148226, 0.0047690356150, -0.0183922927827, 0.0503041893244, 0.0312764607370, -0.0303532145917, 0.0304274670780, -0.0517752021551, 0.0618047863245, 0.0413953289390, -0.0241292379797, -0.0688184648752, -0.0118469530717, 0.0188945252448, -0.0685289278626, -0.0507342182100, -0.0423636101186, -0.0007105435361, 0.0596055202186, 0.0531133823097, 0.0343785770237, -0.0261938162148, -0.0078595699742, 0.0171940978616, -0.0617932565510, 0.0204107314348, -0.0465155728161, -0.0636845231056, 0.0119570940733, 0.0189083125442, 0.0273348987103, -0.0415267609060, 0.0655318945646, 0.0444945357740, 0.0633325129747, 0.0245398916304, -0.0550824552774, 0.0291216149926, -0.0463403202593, -0.0557626895607, 0.0623335614800, -0.0145495906472, 0.0376753471792, -0.0202713944018, 0.0549551323056, -0.0098333004862, -0.0606167614460, 0.0026803964283, 0.0226281117648, -0.0132574774325, 0.0286655016243, -0.0601186342537, -0.0179129708558, -0.0180397015065, 0.0490112714469, -0.0341554358602, -0.0427024476230, 0.0540769472718, -0.0273533388972, 0.0655746385455, 0.0247493702918, 0.0485974252224, -0.0613193251193, -0.0157409328967, 0.0042882962152, 0.0009221652290, 0.0124057307839, 0.0065423147753, 0.0408858358860, -0.0367087908089, 0.0479495897889, 0.0557598695159, -0.0161477290094, -0.0672982335091, 0.0665355548263, 0.0282099880278, -0.0022669984028, 0.0415923111141, 0.0461622737348, -0.0629287511110, 0.0450357198715, -0.0114778624848, 0.0541857145727, -0.0654418542981, -0.0562963932753, 0.0172913782299, -0.0680218860507, -0.0481927059591, -0.0430118478835, 0.0560983121395, -0.0644582808018, -0.0460182763636, -0.0688312426209, -0.0380124412477, 0.0488926284015, -0.0339302830398, -0.0556775517762, 0.0027866947930, 0.0047199921682, 0.0516810417175, 0.0391088314354, -0.0244029909372, -0.0447372421622, -0.0630268678069, 0.0003913479159, 0.0455818697810, 0.0000964447900, 0.0371618866920, 0.0419036112726, -0.0628543347120, -0.0598515458405, -0.0101111130789, -0.0337857529521, 0.0644944682717, -0.0323191508651, -0.0378710404038, 0.0138919083402, 0.0386923477054, -0.0501565337181, 0.0015716273338, 0.0363976880908, 0.0444068498909, 0.0571209974587, -0.0440021716058, 0.0106955254450, 0.0698045194149, 0.0370148979127, 0.0110535193235, 0.0487106256187, 0.0635371506214, 0.0340481922030, -0.0409782379866, 0.0313395038247, -0.0201545171440, -0.0178951211274, 0.0279350914061, 0.0613134168088, 0.0518587417901, 0.0052985022776, 0.0635700002313, 0.0113769667223, -0.0390697568655, -0.0461665578187, 0.0124441701919, 0.0104141859338, 0.0557102635503, 0.0506915338337, -0.0320852771401, -0.0459332689643, -0.0386896878481, 0.0426473952830, -0.0377444066107, -0.0431196242571, -0.0120785990730, 0.0320246219635, 0.0301454272121, -0.0681026354432, -0.0117566017434, -0.0234847422689, -0.0324363112450, -0.0459754094481, -0.0166556201875, 0.0249483045191, 0.0094096148387, -0.0013514359016, -0.0612761341035, -0.0316033698618, -0.0132986512035, -0.0229319091886, 0.0386187545955, 0.0181640982628, 0.0664447247982, -0.0086775878444, -0.0014972075587, 0.0391216538846, -0.0283855628222, -0.0688697472215, -0.0513831228018, -0.0200195498765, 0.0582170560956, -0.0364192575216, -0.0068843434565, -0.0262416340411, 0.0428189337254, -0.0333879701793, 0.0045576477423, 0.0557963028550, -0.0025849603117, 0.0586429238319, 0.0100259892642, -0.0028005752247, -0.0370552502573, -0.0249863602221, 0.0319743081927, -0.0687133148313, 0.0627118945122, 0.0580016151071, -0.0225229542702, 0.0177118275315, 0.0562109276652, 0.0603287070990, -0.0064576654695, 0.0279894359410, 0.0241356547922, -0.0681879296899, -0.0340658240020, -0.0493834242225, 0.0336186550558, -0.0380901731551, 0.0695858523250, 0.0487143285573, -0.0276169721037, -0.0415315888822, -0.0506526306272, -0.0000976535812, 0.0653120279312, 0.0401225797832, 0.0410004891455, 0.0599883459508, -0.0266631189734, 0.0491145253181, 0.0169338025153, -0.0569125972688, 0.0405114628375, 0.0221816580743, 0.0331381745636, -0.0698033571243, 0.0254246536642, 0.0139377191663, -0.0183638315648, -0.0682324990630, -0.0663077384233, 0.0484352335334, 0.0109282983467, -0.0007409547688, -0.0361048914492, -0.0405617170036, -0.0581668093801, -0.0412158034742, -0.0000979574615, -0.0436930023134, -0.0161259975284, -0.0438207313418, -0.0168006662279, -0.0313994437456, -0.0256801024079, 0.0538955740631, 0.0107786934823, 0.0683763176203, 0.0227161813527, -0.0246440172195, 0.0035559351090, 0.0001423110079, -0.0393932983279, -0.0058024036698, -0.0592105686665, 0.0281162243336, -0.0107352389023, 0.0612648651004, 0.0339910238981, -0.0167894437909, -0.0010884810472, -0.0251736026257, 0.0177608747035, -0.0544202066958, -0.0310189947486, 0.0345999486744, 0.0058413371444, -0.0461530536413, -0.0260580182076, -0.0210332367569, 0.0031416246202, -0.0564185231924, -0.0093839755282, -0.0413848608732, 0.0364512279630, -0.0413014478981, 0.0337005071342, -0.0374523997307, 0.0236550737172, 0.0099949082360, 0.0308117493987, -0.0546763502061, -0.0573859736323, 0.0259019844234, -0.0495169796050, -0.0585041455925, -0.0491138584912, 0.0296760406345, 0.0342422164977, -0.0364615581930, 0.0401192717254, -0.0193929132074, 0.0606459677219, -0.0162450373173, -0.0208225771785, 0.0130979670212, -0.0433016009629, 0.0316986031830, -0.0453393049538, -0.0461629591882, 0.0107257394120, 0.0483608022332, 0.0123585024849, -0.0045950752683, 0.0384112410247, -0.0135331582278, -0.0535501874983, -0.0474111959338, -0.0062086549588, 0.0634035989642, -0.0410878323019, -0.0343040972948, 0.0665128976107, -0.0034259217791, 0.0019112238660, -0.0193841122091, -0.0049535338767, 0.0036588632502, 0.0616456456482, 0.0315669067204, 0.0254823714495, 0.0555319935083, -0.0543740205467, 0.0620620287955, 0.0671300217509, -0.0443698689342, -0.0407073087990, 0.0082728555426, 0.0352211520076, -0.0244471952319, -0.0200739707798, -0.0476321727037, 0.0220058094710, -0.0395906455815, 0.0170076973736, 0.0194207653403, 0.0064321379177, 0.0218565706164, -0.0145365884528, 0.0214376226068, -0.0371753275394, 0.0476509742439, -0.0385816469789, -0.0468132011592, -0.0311816539615, 0.0107379108667, -0.0560897439718, 0.0620094798505, 0.0051470343024, -0.0479208081961, -0.0644308850169, -0.0344658419490, 0.0698194280267, 0.0253898184747, 0.0047952863388, 0.0130121568218, -0.0473660342395, 0.0177892167121, 0.0182491056621, 0.0605523511767, 0.0307335574180, 0.0636133924127, 0.0593332871795, -0.0463726930320, 0.0365370772779, -0.0336514897645, -0.0242426861078, -0.0087128933519, 0.0368092767894, -0.0521262362599, -0.0570266582072, 0.0664005279541, -0.0052145090885, -0.0483172349632, 0.0494464188814, 0.0572019554675, 0.0358300916851, -0.0407355688512, -0.0084022860974, -0.0211687944829, -0.0474786572158, 0.0647946074605, 0.0543654337525, 0.0478305853903, 0.0632683560252, -0.0101102674380, -0.0251202583313, 0.0559246689081, -0.0128891374916, 0.0213341526687, 0.0382177755237, -0.0338247418404, 0.0554178282619, -0.0657567456365, -0.0478052385151, 0.0105808470398, 0.0222849044949, 0.0651780292392, 0.0412706509233, 0.0594698749483, -0.0549888573587, -0.0387838222086, 0.0265000462532, 0.0257688164711, 0.0423290506005, -0.0552797988057, 0.0553543940187, -0.0632714480162, 0.0144282225519, -0.0551190376282, -0.0482162609696, 0.0461280904710, 0.0083689149469, 0.0589547008276, 0.0201391633600, 0.0523455627263, -0.0045157601126, -0.0026222043671, 0.0656759142876, -0.0697763934731, 0.0478787720203, 0.0031502838247, -0.0320482850075, -0.0186912920326, 0.0676789581776, -0.0028914397117, -0.0048678321764, -0.0488728433847, -0.0284818764776, 0.0651198551059, -0.0390520319343, -0.0692157000303, -0.0670054703951, -0.0549326315522, -0.0043911589310, 0.0026090240572, -0.0161338150501, 0.0387506075203, 0.0486705787480, -0.0376705788076, 0.0407845601439, 0.0017360327765, -0.0567515417933, 0.0582568235695, 0.0642466694117, 0.0112808905542, -0.0210894141346, 0.0531634166837, 0.0377635248005, -0.0233566351235, 0.0481839142740, -0.0372205376625, 0.0672206506133, 0.0540850944817, -0.0298054665327, -0.0198521316051, -0.0421495735645, 0.0034134292509, 0.0138828838244, 0.0240461360663, -0.0389887392521, 0.0046046613716, -0.0402824319899, 0.0229797307402, 0.0307039245963, 0.0250480752438, 0.0462679937482, 0.0075465445407, -0.0064029884525, 0.0511300638318, 0.0042213471606, 0.0227441806346, -0.0331869758666, 0.0549372620881, 0.0119551261887, 0.0100462678820, -0.0301463399082, 0.0418487973511, 0.0018952038372, 0.0569631606340, 0.0185712091625, -0.0592734254897, -0.0699144303799, 0.0653996840119, -0.0397867597640, -0.0658714100718, -0.0576394833624, 0.0491437613964, -0.0225177984685, 0.0683096870780, 0.0656621307135, -0.0474507026374, -0.0410909391940, 0.0607513934374, -0.0376152470708, 0.0640161484480, 0.0186530537903, 0.0357405357063, 0.0554821081460, 0.0481498762965, 0.0567862428725, -0.0612331554294, 0.0370406322181, 0.0631361380219, 0.0131768863648, -0.0576355233788, 0.0573328472674, -0.0593750365078, -0.0267097428441, -0.0501390658319, 0.0296143703163, -0.0596970133483, 0.0671634152532, 0.0671300739050, 0.0675190165639, -0.0409989394248, -0.0041943043470, 0.0195979475975, -0.0478479303420, 0.0139739420265, 0.0670649036765, -0.0408059358597, -0.0659902095795, -0.0499886423349, -0.0576992519200, -0.0108911572024, -0.0643758103251, 0.0689770281315, -0.0209155175835, 0.0320066213608, -0.0628138855100, 0.0589088499546, 0.0653305649757, 0.0131273260340, 0.0689493268728, 0.0346892699599, 0.0674445629120, -0.0139743667096, -0.0152383083478, 0.0169437602162, 0.0030216039158, 0.0520213954151, 0.0582943223417, 0.0258983317763, 0.0542161390185, 0.0126425595954, -0.0085481917486, -0.0565314143896, -0.0354111120105, 0.0560385212302, -0.0300133675337, -0.0148181309924, 0.0437006950378, -0.0396461598575, 0.0432031303644, 0.0558914318681, 0.0451252125204, -0.0558927580714, 0.0356053449214, 0.0119574517012, 0.0059404205531, -0.0059303003363, 0.0415870621800, -0.0676937773824, -0.0117131555453, -0.0055698445067, -0.0011229155352, -0.0174686256796, -0.0610939525068, 0.0192525647581, 0.0246529467404, 0.0252869427204, 0.0428157672286, 0.0128487255424, -0.0660722404718, -0.0331078208983, 0.0061035216786, -0.0486726239324, 0.0027175270952, -0.0529975146055, -0.0090271979570, 0.0132664861158, -0.0353186950088, 0.0039799511433, -0.0470924340189, 0.0164566840976, -0.0451259203255, 0.0025632460602, 0.0286756567657, 0.0231753606349, 0.0624671913683, -0.0256457906216, -0.0340070985258, 0.0558649487793, 0.0332608334720, 0.0145705575123, 0.0115249119699, 0.0327663309872, -0.0132850511000, -0.0156139777973, -0.0294400174171, -0.0036767581478, 0.0546141415834, 0.0489987917244, 0.0334985293448, -0.0216577276587, 0.0610234849155, -0.0394957065582, 0.0519259199500, 0.0555933080614, -0.0124889034778, 0.0342176817358, -0.0686655268073, 0.0423368848860, -0.0040143220685, -0.0567860566080, 0.0339776277542, 0.0371123068035, -0.0314512141049, -0.0063836979680, 0.0235800072551, -0.0648540407419, -0.0107245892286, 0.0061761476099, 0.0427279733121, 0.0094144549221, 0.0516515634954, 0.0388085991144, 0.0611566081643, 0.0141549082473, -0.0552019625902, -0.0473042428493, -0.0540781170130, -0.0059554344043, 0.0244714319706, -0.0059383367188, -0.0231020674109, -0.0690091252327, -0.0636439099908, -0.0297915115952, -0.0640376135707, 0.0216587875038, 0.0389616452157, 0.0014158800477, 0.0271693021059, -0.0076747080311, 0.0002181290911, 0.0188196823001, 0.0078378086910, 0.0255784578621, 0.0255924295634, 0.0467692986131, -0.0174727346748, -0.0272711459547, 0.0665472447872, -0.0079454891384, -0.0067735561170, 0.0516955517232, 0.0483975484967, 0.0273302681744, 0.0578474700451, 0.0145143633708, -0.0627700909972, 0.0146946944296, -0.0473038852215, -0.0013323498424, 0.0618006065488, -0.0005291999551, 0.0082879662514, -0.0232402700931, 0.0467576049268, 0.0124338176101, -0.0093147754669, -0.0138672664762, -0.0064051742665, 0.0535398982465, 0.0233694314957, 0.0635600090027, -0.0645277127624, 0.0408006794751, -0.0530697368085, -0.0495641306043, 0.0610072389245, 0.0648837238550, -0.0055288625881, -0.0245084129274, 0.0065212245099, 0.0507832840085, -0.0575510188937, 0.0542088560760, -0.0420336350799, 0.0180780906230, 0.0156858619303, 0.0531983897090, 0.0661807358265, -0.0376764312387, -0.0579823069274, 0.0206210259348, 0.0482319109142, -0.0100001487881, 0.0133473565802, -0.0072525753640, -0.0181274209172, 0.0552249699831, -0.0261160656810, 0.0692645981908, -0.0389413051307, 0.0212754998356, -0.0690545961261, -0.0409283302724, 0.0299459733069, 0.0468636155128, 0.0680605247617, -0.0532240383327, 0.0040645138361, -0.0686909109354, 0.0171642694622, -0.0676750317216, 0.0430410243571, 0.0441950224340, -0.0222554337233, -0.0575694330037, 0.0521975271404, 0.0276794172823, -0.0578174740076, -0.0253669191152, -0.0515352785587, 0.0076585402712, -0.0639113932848, -0.0028579228092, 0.0583031289279, -0.0430026911199, 0.0095065273345, 0.0433436818421, -0.0015521545429, 0.0347069166601, -0.0080587780103, -0.0639598965645, -0.0402915626764, -0.0180779658258, -0.0640446245670, 0.0694021955132, -0.0050694798119, -0.0178693477064, -0.0029563007411, 0.0658555477858, -0.0096673136577, -0.0584530718625, -0.0126874800771, 0.0390546433628, 0.0230904389173, 0.0476513989270, 0.0604191496968, -0.0652025341988, -0.0087014902383, 0.0555563084781, -0.0257404930890, -0.0543204210699, -0.0629210472107, -0.0321687199175, -0.0550531297922, 0.0380216017365, 0.0179337523878, -0.0087886210531, -0.0233884379268, -0.0628416091204, -0.0621998496354, 0.0374896600842, -0.0527951121330, 0.0127937076613, 0.0229129958898, 0.0618912391365, -0.0186887029558, 0.0603468827903, 0.0450937449932, 0.0195487998426, 0.0468602962792, 0.0024446153548, -0.0450623184443, -0.0086197191849, 0.0609297491610, 0.0325713604689, 0.0369780324399, -0.0248363371938, -0.0137510988861, 0.0591710433364, 0.0439213812351, 0.0244720447809, 0.0539095215499, -0.0252717547119, -0.0058027943596, 0.0545509979129, 0.0514944233000, -0.0196596551687, 0.0253632552922, 0.0673893392086, -0.0554964467883, -0.0695362016559, -0.0297884661704, 0.0246899854392, -0.0045552221127, 0.0176493171602, -0.0620282888412, 0.0107339387760, -0.0248405076563, -0.0294741038233, -0.0624075345695, 0.0121443364769, 0.0614646524191, -0.0611128956079, -0.0128896804526, 0.0408613681793, -0.0572945624590, -0.0672933906317, 0.0338157340884, -0.0019346366171, 0.0011187685886, 0.0203586481512, -0.0584109574556, -0.0438861772418, 0.0660866275430, 0.0446975827217, -0.0469940192997, 0.0269387420267, 0.0106929326430, 0.0226022880524, 0.0570496395230, -0.0350411981344, -0.0635963156819, -0.0369944088161, -0.0406056568027, 0.0011972013162, 0.0179456993937, -0.0022009678651, 0.0326059386134, 0.0267951805145, -0.0581222735345, 0.0077054151334, 0.0359548628330, -0.0004683817388, -0.0524585656822, 0.0279064569622, 0.0335632190108, 0.0486938357353, 0.0539137646556, -0.0460419692099, -0.0545117929578, 0.0116979060695, 0.0294004827738, -0.0285322777927, -0.0349564105272, 0.0560565628111, -0.0492195338011, -0.0270525962114, -0.0518488995731, -0.0293933153152, 0.0221547838300, 0.0214296430349, -0.0490077175200, 0.0328917019069, -0.0016197820660, -0.0595089644194, 0.0091547295451, -0.0435730777681, -0.0036993469112, -0.0485112406313, 0.0481753684580, -0.0508672520518, 0.0033009150065, 0.0104433000088, 0.0607931613922, 0.0007270713686, 0.0623672939837, -0.0272843986750, -0.0368963144720, 0.0215062033385, 0.0681839510798, 0.0541233047843, 0.0367061346769, 0.0583379752934, -0.0240470897406, -0.0489961914718, -0.0007086161640, 0.0263114236295, 0.0273121371865, -0.0051429341547, 0.0585612878203, 0.0329005159438, 0.0485774539411, -0.0261390749365, 0.0652330443263, -0.0075867786072, -0.0291624274105, 0.0125323124230, 0.0519595816731, -0.0031150472350, -0.0600673444569, 0.0573776252568, 0.0657217577100, 0.0499908141792, 0.0645645409822, -0.0560359135270, -0.0030425239820, 0.0233079846948, -0.0334640368819, -0.0067584998906, 0.0652792304754, -0.0461736060679, 0.0452312864363, 0.0613267272711, -0.0082586985081, 0.0181893538684, -0.0674020797014, 0.0183961521834, -0.0564122311771, 0.0093473056331, -0.0576226375997, -0.0589525550604, 0.0040139597841, 0.0428526364267, -0.0023803336080, 0.0493271760643, 0.0011783848749, 0.0218183472753, -0.0264336112887, 0.0197912007570, 0.0686406642199, 0.0426552779973, -0.0635606199503, -0.0648258477449, -0.0614302456379, 0.0562536790967, -0.0341754853725, -0.0234603062272, 0.0120231425390, 0.0622902475297, 0.0363873988390, 0.0082378899679, 0.0280662309378, 0.0037592251319, 0.0254969932139, -0.0342629998922, 0.0517449900508, 0.0292663406581, -0.0053851851262, -0.0501807592809, 0.0416540279984, 0.0178481042385, -0.0309481676668, 0.0200328510255, 0.0328521430492, -0.0568317770958, 0.0605364330113, 0.0589248016477, -0.0478601865470, 0.0206676051021, 0.0126925744116, -0.0021358954255, -0.0664894953370, 0.0304928440601, -0.0156504400074, 0.0681303367019, 0.0445876903832, 0.0539984628558, 0.0039603891782, -0.0662497431040, -0.0475682839751, -0.0207979697734, -0.0626253634691, 0.0612809173763, 0.0477387942374, -0.0606211982667, 0.0115640982985, 0.0405173413455, 0.0211525298655, 0.0069322874770, -0.0674538016319, -0.0164537969977, -0.0077669671737, -0.0638847276568, -0.0135533483699, -0.0099929161370, -0.0543294325471, -0.0688811019063, -0.0651621073484, 0.0272832326591, -0.0078435521573, -0.0550723224878, 0.0435444116592, 0.0247914791107, 0.0565431527793, -0.0545835755765, -0.0152759291232, -0.0255695916712, -0.0417150519788, 0.0307713653892, 