//Numpy array shape [7, 21, 1]
//Min -0.081147268414
//Max 0.081049822271
//Number of zeros 0

#ifndef W38_H_
#define W38_H_

#ifndef __SYNTHESIS__
output_conv_weight_t w38[147];
#else
output_conv_weight_t w38[147] = {-0.0156807936728, 0.0220046099275, 0.0534147173166, -0.0560788661242, -0.0275236088783, 0.0352989248931, 0.0030460895505, -0.0094416225329, 0.0431643277407, -0.0513590872288, -0.0332587212324, -0.0384683124721, 0.0060712560080, 0.0706550702453, 0.0603769198060, 0.0271053873003, -0.0027374662459, -0.0134031893685, 0.0375512205064, -0.0232256334275, -0.0125480033457, 0.0723716542125, -0.0055864788592, -0.0415473282337, -0.0774753913283, 0.0112879648805, 0.0469730123878, 0.0305157005787, 0.0336225144565, 0.0699391141534, 0.0203334074467, 0.0752681866288, 0.0618894770741, -0.0090663358569, 0.0126455975696, 0.0597923547029, -0.0052093151025, 0.0690863206983, 0.0681044459343, 0.0369608364999, 0.0486504957080, -0.0744149759412, 0.0200212057680, 0.0348964743316, -0.0187998283654, 0.0553813762963, -0.0190600380301, -0.0645784214139, -0.0303507950157, -0.0426921248436, 0.0315609946847, -0.0628502890468, -0.0289358217269, -0.0216271411628, -0.0256758015603, -0.0300055947155, 0.0359105393291, -0.0758548527956, -0.0248458143324, -0.0051676360890, -0.0225088931620, -0.0398918986320, 0.0810498222709, 0.0483051687479, 0.0385930947959, 0.0060306591913, -0.0191599912941, 0.0792617574334, 0.0508036836982, 0.0330888703465, 0.0114234918728, 0.0591501742601, 0.0369607098401, -0.0707603767514, -0.0023204227909, 0.0220802184194, -0.0015592618147, -0.0306114759296, -0.0154119012877, 0.0428092442453, 0.0171762034297, 0.0035309260711, -0.0762279704213, -0.0475588738918, 0.0234852526337, -0.0507163442671, 0.0094414940104, 0.0306061077863, -0.0559384897351, -0.0592069365084, -0.0071920994669, 0.0452231541276, 0.0693530067801, 0.0339500941336, -0.0162461753935, -0.0544966645539, -0.0400586538017, -0.0541333034635, -0.0015868607443, -0.0636309236288, 0.0373764149845, -0.0811472684145, 0.0163955762982, 0.0077918153256, -0.0118347546086, 0.0257004518062, 0.0114868115634, -0.0447447858751, 0.0458833277225, 0.0081878080964, 0.0175043940544, 0.0235102958977, 0.0375084131956, -0.0771504789591, -0.0052150669508, 0.0800665840507, 0.0470119565725, 0.0626616925001, -0.0160611625761, -0.0392049215734, 0.0043793478981, 0.0732395946980, -0.0541871152818, -0.0087402211502, -0.0006031082012, -0.0489752255380, 0.0637647360563, -0.0111400978640, 0.0567694790661, 0.0683926939964, 0.0458016321063, -0.0477335527539, 0.0528756938875, 0.0508627071977, 0.0114677958190, 0.0172059368342, -0.0062221316621, -0.0251046083868, 0.0286842044443, 0.0291840545833, 0.0406799912453, -0.0186237618327, 0.0674588084221, -0.0000631719959, 0.0328153595328, -0.0302889794111, 0.0224070902914};
#endif

#endif
